#ifndef SRC_LENET5_WEIGHTS_BIAS_H_
#define SRC_LENET5_WEIGHTS_BIAS_H_

typedef float bias_default_t ;
typedef float weight_default_t;

 bias_default_t b1[6] = { 0.025575041771, -0.002153477632, -0.028862904757, 0.003258966608, -0.073600828648, -0.040061172098 };
 bias_default_t b3[16] = { 0.019073441625, -0.025135762990, 0.138503521681, -0.052502352744, -0.108942948282, -0.054933834821, -0.029950363562, -0.001227431814, -0.050029836595, -0.005677441135, 0.016388963908, 0.051268998533, -0.126525104046, 0.051677554846, 0.063460767269, -0.061336446553 };
 bias_default_t b5[120] = { 0.039675883949, 0.047414675355, -0.031112968922, 0.004870147444, 0.012527243234, 0.014310999773, 0.013606126420, -0.010654700920, -0.006378280465, 0.030494974926, -0.021389497444, -0.006791594438, -0.004903488327, -0.009693176486, -0.000801904185, 0.056749109179, 0.007086376194, 0.005952423904, 0.018398677930, 0.012842475437, 0.006151590496, -0.021435260773, 0.011887852103, 0.007385193370, -0.014455468394, 0.036256261170, 0.025524726138, -0.004292924888, 0.028110796586, -0.010723481886, -0.011720723473, -0.005894732662, 0.035589549690, -0.015315731056, -0.024434080347, 0.031847618520, -0.011871568859, -0.031746041030, -0.079266294837, -0.036366876215, 0.009773124941, -0.033121760935, 0.017605395988, 0.001996837324, -0.013033658266, -0.035522438586, 0.000150386943, -0.014253868721, -0.004027070478, 0.017896959558, 0.015300537460, -0.027950471267, -0.028436947614, 0.014966204762, 0.059657003731, -0.059325706214, -0.031564500183, -0.022113179788, -0.027355778962, -0.028248533607, 0.026831803843, 0.001774800825, 0.008102251217, -0.029552709311, -0.019350159913, -0.012236636132, -0.021983670071, 0.007654092275, 0.027464279905, 0.004667683970, 0.081733293831, 0.042503248900, -0.007881767116, -0.028477057815, 0.065044887364, -0.021476658061, 0.004067112692, -0.008710767142, -0.009215495549, -0.009196995758, -0.036572128534, 0.000836184947, 0.006920416839, -0.045609600842, -0.011299545877, -0.022592708468, 0.038450844586, -0.040808301419, 0.002801277675, 0.040155984461, -0.004923629574, 0.002174060093, -0.000011097349, 0.046220581979, 0.000668383786, 0.007120844442, 0.001532270457, -0.002347494941, -0.001802830724, -0.051685601473, 0.016726061702, -0.030072432011, 0.058989658952, -0.029157351702, 0.013907114044, -0.012826438062, 0.071609564126, 0.057116344571, -0.012214791030, 0.004092651419, -0.013728966936, 0.022518446669, -0.000248747179, 0.027226334438, -0.015682749450, 0.002545378637, 0.029434086755, 0.018800765276, 0.002803800395, 0.011859890074 };
 bias_default_t b6[84] = { -0.032966867089, -0.006983916275, -0.038047999144, -0.009882482700, 0.060959815979, -0.007536238991, 0.020086284727, -0.041775535792, -0.009785956703, -0.005947063211, 0.035524152219, -0.041092224419, -0.019280964509, 0.031784139574, -0.048983544111, -0.015788450837, -0.023783938959, -0.012035987340, -0.017229881138, -0.007876897231, 0.069782279432, 0.047852888703, -0.003501100000, -0.016193069518, -0.010035633110, 0.070629991591, 0.021696722135, 0.032718691975, -0.037517290562, 0.008626065217, 0.004888438620, -0.040267899632, 0.012565228157, 0.024001777172, -0.023923447356, 0.050600674003, 0.027741624042, 0.029601853341, 0.038732375950, -0.027232430875, 0.008991451934, -0.027070021257, -0.054779332131, -0.029436258599, 0.017098240554, 0.046566776931, 0.040031053126, -0.028923820704, 0.040764026344, 0.001271030167, 0.030982332304, -0.004330385476, -0.011399333365, 0.024214068428, 0.053599197417, -0.005508277100, -0.000602343120, 0.014781150967, 0.003338275244, -0.006147520151, 0.030861420557, 0.002868968062, 0.022815028206, 0.062813736498, -0.015112570487, -0.012712499127, -0.032406125218, 0.046431940049, 0.000838646258, -0.018054954708, -0.017339974642, 0.035298682749, 0.026389500126, -0.012466176413, 0.038199126720, 0.037746813148, -0.005005435087, -0.004659494385, -0.019553482533, 0.026205413043, 0.043333437294, -0.018712880090, -0.019705660641, -0.007884482853 };
 bias_default_t b7[10] = { -0.018838690594, -0.055797688663, 0.001113062957, 0.024918084964, -0.007798998151, 0.016095835716, -0.029257413000, -0.029023772106, 0.048208173364, 0.002171966480 };

 weight_default_t w1[150] = { -0.337356805801, -0.166020527482, -0.188039079309, 0.221865758300, 0.118748374283, 0.205742001534, -0.341677039862, 0.113768704236, -0.255915433168, 0.379037320614, 0.399055749178, -0.032215941697, -0.161198616028, 0.085498139262, -0.293242841959, -0.072428748012, 0.034931562841, 0.194200292230, -0.428016811609, 0.173208594322, 0.209636434913, -0.013107879087, -0.220337077975, 0.130188524723, -0.258916825056, -0.141600295901, 0.047698359936, 0.145651534200, -0.067987322807, 0.212970897555, -0.272383660078, 0.144383355975, 0.164759427309, 0.297457188368, 0.359256207943, 0.179455235600, -0.178463071585, 0.010230756365, 0.083344623446, 0.299191415310, 0.231550797820, 0.121012106538, 0.003026356455, 0.295901000500, 0.168225944042, 0.123389333487, -0.043575864285, 0.133341312408, 0.290596395731, -0.323337644339, 0.309673756361, -0.041217245162, -0.150600522757, 0.268381357193, 0.274468153715, -0.556057095528, 0.210920631886, 0.145993307233, -0.370939105749, 0.198138505220, 0.346928298473, 0.114450491965, 0.190081506968, -0.105560749769, 0.189418435097, -0.299595803022, 0.398651927710, 0.076693527400, 0.349568158388, -0.062701240182, 0.318182200193, -0.344217628241, 0.250854939222, 0.268899887800, -0.007958161645, -0.053904056549, 0.002088906709, -0.210342153907, 0.349439471960, -0.133583903313, 0.403515696526, 0.023825678974, -0.188490077853, 0.370289236307, 0.443564862013, -0.285099953413, 0.054614417255, -0.366709500551, -0.058639660478, 0.284780204296, 0.515402376652, 0.203695401549, -0.238887205720, -0.104580439627, 0.063162237406, -0.398537576199, 0.422673583031, 0.176001831889, 0.064747899771, -0.101257503033, 0.329994797707, -0.133417576551, 0.407677322626, 0.198134168983, 0.088186025620, 0.081647217274, -0.106153331697, 0.113117016852, 0.014117936604, 0.431491523981, 0.198787570000, -0.116621375084, -0.143898248672, 0.143751874566, -0.120333328843, 0.215597599745, 0.325393885374, -0.194255679846, -0.112421609461, 0.332679033279, 0.311206549406, 0.011099584401, 0.035101063550, -0.026785384864, 0.104625143111, -0.140990629792, 0.167671322823, -0.021893363446, 0.195220470428, -0.230315566063, 0.156861975789, -0.062336876988, 0.104853853583, 0.153059750795, 0.102880015969, 0.023699967191, 0.103424213827, -0.195286318660, -0.121365040541, 0.346287786961, 0.268168479204, 0.210108593106, -0.067693904042, 0.137459874153, -0.278216630220, 0.244398459792, 0.380732327700, 0.121165528893, -0.032080478966, -0.022464865819 };
 weight_default_t w3[2400] = { -0.066119723022, 0.039552159607, -0.096570953727, -0.039688181132, -0.149482637644, -0.021043291315, 0.034425053746, -0.077677324414, 0.160474583507, 0.063857667148, -0.102990783751, -0.045025177300, -0.227283462882, 0.041903123260, 0.030572101474, -0.174670234323, 0.072888344526, 0.075213715434, -0.161768049002, 0.145293593407, -0.019222205505, 0.081047192216, 0.039491120726, -0.051215954125, -0.053988646716, -0.081649757922, -0.113382846117, -0.141938075423, -0.158417955041, 0.154832914472, 0.089897438884, 0.062686845660, -0.005264621694, 0.040393643081, 0.059159986675, 0.073107577860, 0.049641877413, 0.137000277638, -0.000461736228, -0.171093076468, 0.000367129105, -0.049593538046, -0.049446579069, 0.059809163213, 0.065009035170, 0.111364424229, -0.006392991636, 0.062475994229, -0.107730492949, 0.060653153807, -0.133182153106, 0.087149053812, 0.062512680888, -0.096095107496, -0.108156859875, -0.010126082227, 0.022313851863, -0.064639121294, -0.169337674975, -0.059106685221, -0.248499721289, 0.047419521958, -0.100562043488, -0.019756723195, -0.078322581947, 0.040491390973, -0.071067407727, -0.109841324389, -0.011205809191, -0.029625240713, -0.082535907626, -0.009604801424, 0.078988820314, -0.052012760192, 0.031543679535, -0.129357248545, -0.324723035097, 0.060275487602, 0.209935903549, -0.222490668297, 0.040471863002, -0.007927269675, 0.148148134351, -0.035327095538, 0.026935203001, -0.045132439584, -0.203760638833, -0.020162936300, 0.093218244612, -0.088424049318, 0.078044690192, -0.104534767568, -0.017655970529, 0.090273313224, -0.017773287371, 0.044071674347, 0.276673138142, 0.050733841956, -0.043720446527, -0.000496511580, -0.080708101392, 0.010885166936, 0.069200761616, 0.070041015744, 0.055374700576, 0.053876049817, -0.105735383928, 0.040276542306, 0.012551722117, 0.015813665465, -0.068902216852, 0.083146579564, -0.028950773180, -0.001569670159, -0.099834308028, 0.089318379760, -0.004203763325, 0.062411993742, -0.116560436785, -0.009082856588, -0.118205837905, -0.096118710935, 0.071958117187, -0.032453216612, 0.082744270563, 0.031019132584, -0.031720302999, -0.108886107802, 0.088290706277, -0.043131466955, -0.011158610694, 0.038060944527, 0.143201127648, -0.007483977824, -0.091966085136, -0.134761601686, -0.075885660946, -0.005447083618, -0.082003988326, -0.112198971212, 0.194053962827, -0.048207663000, -0.062322080135, 0.163681939244, 0.014911713079, 0.025956379250, -0.007422651164, -0.095130227506, 0.210664182901, -0.021275442094, -0.169761881232, 0.011313157156, -0.127074643970, 0.018183436245, 0.076706700027, -0.123066708446, 0.033820882440, -0.048818301409, -0.202554911375, -0.079830251634, -0.013633787632, 0.039567716420, -0.064197435975, 0.072501450777, 0.020810693502, 0.060321528465, -0.208085939288, -0.024060485885, -0.043843880296, -0.036845065653, 0.037320312113, -0.020292110741, 0.018806653097, -0.065412163734, -0.018938839436, -0.042356837541, 0.070368647575, -0.021197291091, 0.113509699702, -0.075929336250, 0.062756046653, -0.011091478169, -0.041887424886, -0.087085247040, 0.000407000101, -0.049658972770, 0.028642933816, 0.060111165047, 0.112633027136, -0.034543912858, -0.055332895368, 0.165201053023, 0.384125351906, -0.074804298580, -0.044033762068, 0.042445290834, -0.007576457690, -0.100223265588, -0.073635227978, -0.036442171782, -0.084596782923, -0.073674455285, -0.107699654996, -0.022511078045, 0.002436611801, 0.017531225458, -0.079482041299, 0.145226001740, 0.061023965478, -0.157785713673, 0.134108304977, 0.002729085041, 0.048337932676, 0.011761014350, 0.076750233769, -0.088674552739, -0.142450675368, -0.008439302444, 0.015846664086, 0.007820497267, 0.107383944094, 0.042952343822, 0.120242364705, -0.033499605954, 0.103675596416, -0.068318292499, 0.074620708823, -0.112395778298, -0.034986477345, -0.096438989043, -0.091365188360, 0.092493385077, -0.057008866221, 0.102206774056, 0.028451524675, -0.087526217103, 0.076401099563, 0.059197433293, 0.149792164564, 0.030839586630, -0.109672591090, -0.030038464814, 0.219488322735, 0.010571579449, 0.061781186610, 0.018286690116, -0.080338738859, -0.145529627800, 0.007074230351, -0.020645769313, -0.026221824810, -0.059381175786, 0.106057979167, -0.041624292731, 0.057664953172, -0.014560135081, -0.097574420273, 0.018424427137, 0.104739487171, -0.051394786686, -0.029123364016, 0.113682314754, 0.027617244050, -0.080893792212, 0.013313621283, -0.070218212903, 0.048224981874, -0.026727434248, 0.243014365435, -0.009592102841, 0.020320534706, 0.051141928881, 0.273880809546, -0.112470589578, 0.033609345555, -0.167413741350, 0.061211027205, -0.081550262868, -0.059839591384, -0.103378206491, -0.079712182283, -0.057701360434, 0.081036172807, -0.025139829144, 0.024761386216, -0.030296521261, 0.056383002549, -0.009137185290, 0.256145089865, -0.166891261935, 0.104863226414, 0.005534123164, 0.050133094192, -0.093438223004, -0.037829216570, 0.094795376062, -0.193722173572, 0.007582676597, 0.010635323822, -0.076944768429, 0.001767151523, -0.038934234530, 0.025741731748, 0.048696801066, 0.117788650095, -0.032301254570, 0.083305239677, -0.131362885237, 0.030463343486, -0.036573950201, 0.061196114868, 0.057723648846, -0.105373136699, -0.061987925321, -0.123151712120, 0.032056484371, 0.091650642455, 0.010518720374, 0.016222128645, -0.048882588744, 0.032320000231, -0.043522782624, 0.038200628012, -0.027085121721, -0.002959612058, 0.049994189292, 0.070983700454, 0.021592801437, -0.098881937563, 0.013843808323, -0.070247001946, 0.062805041671, -0.106746286154, 0.079724378884, 0.126392439008, 0.026251759380, 0.058872580528, 0.039228387177, 0.079199440777, 0.029672814533, -0.043281231076, 0.108135819435, 0.011644287966, 0.059871967882, -0.038991566747, -0.077314466238, 0.025943048298, 0.111879803240, 0.119320102036, -0.052894692868, -0.117738068104, -0.071448706090, 0.225488483906, -0.072755172849, 0.036301456392, -0.016968868673, -0.077064096928, -0.020534275100, 0.114347189665, 0.002370442497, -0.001481148298, -0.094220779836, 0.015966726467, -0.078275196254, 0.150092840195, -0.080123260617, 0.030551681295, 0.128047779202, 0.158252611756, 0.017454005778, 0.162207081914, 0.102088049054, -0.032494172454, -0.042953632772, 0.026521824300, 0.185941368341, 0.071295060217, -0.040032573044, -0.071097120643, -0.038888394833, -0.039514753968, 0.086539536715, 0.112187087536, -0.079269111156, 0.010778724216, -0.253066480160, -0.009124277160, -0.171518400311, 0.014604441822, -0.015598842874, 0.001753052464, 0.154467731714, -0.104148529470, -0.062018256634, -0.063772350550, -0.225173532963, -0.048719432205, 0.095618762076, 0.117064639926, -0.076825663447, 0.029985297471, -0.038752309978, 0.079816639423, 0.041364483535, 0.091748334467, 0.108935005963, 0.001686755219, 0.100319884717, 0.071853242815, 0.058929532766, -0.032717891037, 0.079238764942, -0.043925166130, -0.007107754238, 0.104447595775, 0.067499451339, 0.055021483451, 0.033202275634, 0.073040403426, -0.128017365932, -0.061905298382, 0.087602920830, 0.121737621725, 0.007476803381, 0.039246264845, -0.083997189999, -0.098051592708, 0.033400829881, -0.021171845496, 0.136981979012, -0.053781967610, -0.012837530114, 0.218794852495, 0.076079025865, 0.110113307834, 0.097331948578, -0.122670836747, -0.024800896645, -0.003942079842, 0.131784215569, -0.080694288015, -0.023248126730, 0.024524427950, 0.115335568786, -0.064113475382, 0.047692470253, -0.072473704815, -0.036761570722, 0.091938599944, -0.069440938532, 0.042087960988, 0.015524859540, -0.140613317490, -0.108176551759, -0.032849118114, 0.141744911671, 0.059705357999, -0.002195119392, 0.159091532230, -0.096632577479, -0.184277266264, -0.128340706229, 0.026556450874, -0.029855972156, -0.006357647479, 0.155856460333, 0.138556763530, 0.031359042972, -0.139854088426, -0.054770983756, -0.040066577494, 0.132982373238, -0.083356164396, 0.024349575862, -0.127329841256, -0.129094704986, -0.090363763273, 0.021878881380, -0.006779620424, 0.036060582846, 0.194023489952, -0.019655276090, 0.034652136266, 0.085441157222, 0.009251346812, 0.013751722872, 0.041623096913, 0.085350491107, -0.030831404030, 0.112901903689, -0.095893181860, -0.010693957098, -0.155578613281, -0.227130100131, -0.033874548972, -0.181985214353, 0.039171643555, -0.019190002233, -0.167983934283, 0.087018385530, -0.003659932408, 0.105638548732, 0.204906478524, -0.049027208239, -0.024282190949, 0.055440839380, 0.025095257908, 0.147118955851, -0.170918211341, -0.071822516620, 0.005507871974, -0.092960350215, 0.099683903158, 0.079966999590, -0.025929074734, -0.004656537436, 0.063189312816, 0.048522088677, 0.057124786079, -0.044394828379, 0.077507100999, -0.064721792936, -0.167727679014, -0.021522665396, 0.071690969169, -0.077980123460, -0.009131113999, 0.108953177929, -0.237681791186, 0.015755904838, -0.130527809262, -0.001438888139, 0.014290917665, -0.174605876207, 0.151323258877, -0.077651217580, 0.157682180405, -0.090960949659, 0.003722686786, 0.028350697830, -0.280236721039, -0.068669758737, 0.062975652516, -0.152258858085, 0.021512396634, 0.116353049874, -0.080788239837, -0.033119849861, 0.092167913914, 0.059722561389, -0.080532498658, -0.055393557996, -0.021712848917, 0.050953492522, 0.019814416766, -0.061926897615, -0.149565607309, -0.006941181142, 0.127395942807, -0.185901388526, -0.061099488288, 0.019913822412, 0.011376446113, 0.042488772422, -0.011608174071, -0.009628695436, -0.080738335848, -0.041413526982, 0.065950855613, -0.114761367440, -0.003124741372, 0.046296887100, 0.053940348327, 0.119314968586, 0.082946978509, 0.033110260963, 0.198246002197, 0.124721564353, 0.012619534507, -0.043947115541, 0.148310318589, 0.096839442849, 0.060426358134, 0.092524103820, -0.086210377514, -0.042031388730, -0.189253762364, -0.074289456010, -0.082593411207, -0.081598840654, 0.064634516835, -0.014568937011, 0.065049782395, -0.028823977336, -0.216196179390, 0.328971177340, 0.071920990944, 0.126735791564, 0.065695270896, -0.035566706210, -0.030232753605, 0.018646888435, -0.100001461804, 0.106043942273, 0.008928324096, -0.146053522825, 0.096998661757, 0.036179408431, -0.052327319980, 0.010399703868, -0.153024345636, 0.169475272298, 0.039626397192, 0.115226335824, -0.066508181393, 0.014042475261, -0.070432700217, 0.048847932369, -0.217645838857, 0.122315853834, 0.088789969683, -0.152170762420, 0.165047109127, 0.096131965518, -0.013427176513, 0.011759706773, -0.013218743727, 0.024679606780, -0.089759111404, -0.077937282622, 0.073241636157, -0.104708455503, -0.077471829951, 0.083208605647, -0.003032886423, 0.154342025518, 0.029255514964, 0.002140065888, -0.062224980444, -0.143513470888, -0.080229066312, -0.070545963943, -0.126278787851, -0.103382468224, -0.138822257519, 0.069803796709, 0.084093630314, -0.061736192554, 0.104087181389, -0.032439190894, -0.095667906106, -0.009296533652, 0.076382137835, 0.006459385622, 0.068940177560, 0.008762164041, 0.033469244838, 0.007434214465, 0.158375009894, 0.100657865405, -0.035647660494, -0.044616937637, -0.055080257356, -0.201295375824, -0.167954713106, 0.053431786597, 0.006849579047, -0.126074314117, 0.126632764935, 0.075381003320, 0.068397954106, 0.059331998229, 0.043318372220, -0.047452580184, -0.103479966521, -0.006320331711, 0.029222013429, 0.073865406215, -0.111267991364, 0.027628118172, -0.245633110404, 0.057680748403, -0.156708985567, 0.035893507302, 0.022038059309, -0.006266145501, 0.267196536064, 0.132903113961, 0.118112444878, -0.014282608405, 0.001281893230, 0.313406199217, 0.124348342419, 0.048309452832, -0.047712653875, -0.046419650316, -0.048461008817, -0.088003620505, -0.033290375024, 0.172959595919, 0.206926032901, -0.098710417747, 0.160771414638, 0.054467756301, -0.078209072351, -0.251851111650, 0.026755584404, -0.009791945107, 0.057683940977, 0.032496403903, -0.148518711329, -0.119457356632, -0.070383854210, -0.047089174390, -0.171453237534, 0.049875177443, -0.086774498224, 0.056591607630, 0.044910676777, -0.105035535991, 0.095195949078, -0.085302747786, 0.007467789575, 0.002529144986, 0.154071301222, 0.035606335849, -0.070404417813, -0.004217045382, 0.037073548883, -0.080451689661, 0.163057073951, 0.105060510337, 0.088051654398, -0.123034931719, 0.048871822655, -0.053735118359, 0.095366910100, -0.047225400805, -0.036376986653, 0.029118925333, -0.052695062011, 0.110295817256, -0.077010281384, 0.025976831093, -0.005202348810, -0.113998204470, -0.125114962459, 0.022031404078, 0.302760988474, -0.049320798367, 0.128655821085, 0.271397352219, -0.099300876260, -0.042095787823, 0.153128817677, -0.093143835664, 0.000812357408, 0.026709811762, -0.020034572110, -0.124086350203, -0.013776415028, 0.045716479421, -0.054384596646, -0.082592874765, -0.163646310568, -0.088960193098, 0.073923602700, -0.037585746497, -0.265386223793, -0.340288281441, -0.095268070698, 0.148016899824, -0.033208519220, 0.171700879931, -0.142829194665, -0.039504460990, -0.066327549517, 0.038279894739, -0.272806316614, 0.046124029905, -0.060906868428, 0.107643276453, 0.214738503098, -0.081724807620, -0.025215702131, -0.160608008504, -0.034145038575, -0.048688896000, 0.137138754129, 0.096010960639, -0.081584595144, -0.050683207810, -0.013704332523, -0.017065806314, -0.035390514880, 0.121624387801, 0.103070467710, -0.119274057448, -0.057173293084, -0.056443903595, -0.107466772199, -0.110040657222, -0.012545819394, -0.199249088764, 0.149641767144, 0.082984901965, 0.021682564169, -0.045638203621, -0.026033381000, 0.024977963418, -0.124195650220, 0.003083160380, -0.077103868127, 0.103222668171, -0.017666311935, -0.101225130260, 0.247616037726, -0.145656540990, 0.050288245082, -0.059474833310, 0.083479493856, -0.032118164003, 0.047886274755, -0.001443086308, -0.164198592305, 0.038189407438, 0.079120613635, 0.070550926030, 0.117496021092, 0.086009114981, -0.026807034388, -0.040237236768, 0.000050160801, -0.097895555198, 0.095782145858, 0.064174674451, -0.023083182052, 0.000929147587, 0.039699949324, -0.077687077224, -0.083604983985, 0.002824296243, -0.040206175297, 0.058953374624, 0.176251068711, 0.021878097206, 0.148045063019, -0.019343916327, 0.046172913164, -0.023484956473, 0.052175670862, -0.210432037711, 0.155252993107, 0.018488364294, 0.014690105803, 0.080495208502, -0.007539640181, 0.093427412212, 0.011144624092, 0.008718955331, -0.064091868699, 0.130629494786, -0.070808179677, -0.223804444075, -0.217961743474, -0.149456903338, 0.056331358850, -0.029356354848, 0.076986558735, 0.232249394059, -0.157770618796, -0.149973034859, 0.165246352553, 0.068185009062, -0.089567214251, 0.171602040529, -0.054485742003, 0.026558279991, 0.099446564913, -0.217190906405, -0.018121134490, 0.019744141027, 0.067364342511, -0.184858411551, 0.037531465292, 0.071035057306, -0.047093413770, 0.002475918736, 0.020482990891, 0.058427635580, 0.038186699152, 0.097982876003, 0.092153601348, 0.134162664413, -0.023291496560, -0.161077439785, -0.063777245581, 0.216607064009, -0.082063674927, -0.095326200128, -0.023243904114, 0.122707672417, 0.032553944737, -0.045787010342, 0.119374662638, -0.035625863820, -0.009553157724, 0.074539810419, -0.021290397272, 0.019450016320, -0.061260964721, 0.001237125718, -0.001754468074, -0.159992188215, 0.076744087040, -0.113991372287, -0.043412938714, -0.161642700434, 0.039617702365, -0.001122620655, 0.061717681587, -0.006904334761, 0.130707085133, -0.002010761295, 0.036489743739, 0.079686872661, -0.046086985618, -0.006603709422, -0.000699338270, -0.103105351329, 0.055347938091, -0.154557794333, 0.130037963390, -0.109772942960, -0.018531301990, -0.070746079087, 0.155331388116, -0.054333835840, -0.035192694515, -0.064711235464, -0.143983438611, -0.084187202156, 0.091825194657, 0.022708214819, 0.133125171065, 0.061734735966, 0.013491239399, -0.120963484049, -0.074643470347, 0.072274997830, 0.057590458542, -0.089107289910, -0.029694354162, -0.021595533937, -0.063742808998, -0.133544117212, 0.002548777265, 0.112688057125, -0.158537685871, 0.129706144333, -0.026675358415, 0.129364803433, 0.125657096505, -0.097959734499, 0.099600262940, -0.069308869541, -0.011163937859, 0.023997325450, 0.102833703160, 0.108679249883, -0.033561121672, -0.017266971990, -0.116464577615, -0.079506926239, 0.010829094797, -0.113853633404, 0.060518432409, 0.088069185615, -0.024831710383, -0.054009381682, -0.032841015607, 0.018129043281, 0.157758861780, -0.022895822302, 0.051623106003, -0.075676694512, 0.099244698882, 0.176252320409, -0.170173108578, 0.004843419418, -0.070611201227, -0.154810160398, 0.055390276015, 0.049415830523, -0.057575166225, -0.100819982588, -0.027677584440, -0.048485197127, 0.225731909275, 0.099715620279, -0.057181991637, -0.063958197832, -0.128446102142, 0.109117269516, 0.102367572486, -0.190614178777, 0.046752508730, 0.046750247478, 0.065432891250, 0.005899140611, 0.093628674746, -0.050489362329, -0.021360091865, 0.034018523991, -0.090048506856, -0.090777911246, 0.050405059010, 0.048078902066, 0.087176926434, 0.014401418157, -0.159186184406, -0.125919610262, 0.135819897056, -0.194388642907, -0.012995697558, -0.034110508859, 0.080174811184, -0.119229421020, -0.075212948024, -0.019437396899, -0.131105110049, 0.078240662813, 0.000831192418, -0.075812309980, 0.007458708249, 0.037765789777, -0.033242922276, -0.233828887343, -0.005857182667, -0.177108973265, 0.056363590062, 0.160862013698, -0.168283179402, 0.035879798234, -0.135466083884, -0.042783193290, 0.121918953955, -0.133462890983, 0.035979963839, 0.010846482590, -0.068098589778, 0.074807666242, 0.104055769742, 0.006625360809, 0.027178602293, 0.264035910368, -0.263340651989, 0.000869411859, 0.046004131436, 0.076329469681, 0.118025615811, 0.049522604793, 0.001188466558, -0.108860455453, -0.097962856293, -0.028412582353, -0.072473905981, 0.206224098802, -0.129733368754, -0.152444213629, 0.163042053580, 0.145401895046, 0.146354541183, 0.091499008238, -0.086461447179, 0.091265983880, -0.103076569736, 0.003758010687, 0.361463844776, 0.044900070876, -0.034035205841, 0.065631486475, -0.053928043693, 0.234948307276, 0.078350663185, -0.049749996513, -0.144844338298, 0.040513738990, 0.045888558030, 0.099303275347, -0.212767675519, 0.095460452139, -0.097992084920, -0.084503307939, 0.129339933395, -0.072474874556, -0.084877490997, 0.019935334101, -0.045872434974, 0.025026362389, 0.193174242973, -0.258286058903, -0.068551532924, 0.187801808119, 0.046051446348, -0.033141702414, -0.149899661541, 0.041472941637, 0.018564222381, 0.121474854648, 0.127363532782, 0.128170132637, -0.065423108637, 0.059090215713, -0.004910183139, -0.164219409227, -0.024147052318, 0.071825750172, 0.078097172081, 0.031596913934, 0.108903288841, -0.022323334590, -0.118132516742, -0.071019575000, 0.005542200524, -0.009074955247, 0.069704219699, -0.032319456339, 0.237521052361, 0.029965652153, -0.219738155603, 0.037911903113, -0.049294911325, -0.237010210752, 0.012825186364, 0.234699800611, -0.029722277075, -0.152799457312, -0.171822011471, 0.157916963100, -0.161500304937, 0.016739208251, 0.021950813010, -0.010705612600, -0.120401710272, -0.024032913148, -0.128801167011, -0.014611454681, 0.043793704361, -0.012949147262, 0.120999731123, 0.046718571335, -0.244841158390, -0.117558166385, -0.237052395940, -0.086599230766, -0.067662201822, 0.057550307363, 0.113901078701, -0.133845373988, -0.107075870037, -0.061234407127, 0.073907241225, 0.190246969461, -0.027329064906, -0.200094863772, 0.161143943667, 0.035057783127, 0.063968561590, -0.025248056278, -0.213134810328, 0.271238595247, -0.009917754680, 0.042822092772, 0.093097768724, 0.056405249983, -0.099347800016, 0.021814750507, 0.134238481522, -0.030172616243, 0.156127497554, -0.156997248530, -0.066554315388, 0.087409108877, -0.204226374626, -0.126014113426, -0.209144219756, 0.170394763350, -0.005607953761, 0.046799127012, 0.144256845117, -0.050649762154, 0.085678622127, -0.047208223492, -0.077490128577, 0.110496468842, -0.028602842242, -0.208502009511, -0.080979578197, -0.135017558932, 0.135155946016, -0.101581148803, -0.045534186065, 0.218512639403, 0.050813350827, 0.145530700684, 0.004177828785, 0.041718944907, 0.018323827535, 0.014995704405, -0.010032225400, -0.094165816903, -0.033319532871, 0.012358941138, 0.098536401987, 0.061001583934, 0.023771082982, -0.040359310806, -0.166910633445, 0.020295191556, -0.113746583462, 0.028208747506, -0.032052937895, 0.009852093644, -0.084709629416, 0.031993523240, -0.141512766480, -0.074420474470, 0.240678340197, -0.159589156508, 0.119120895863, 0.308374971151, -0.136802494526, -0.209334328771, 0.071032129228, 0.229794085026, 0.034517478198, 0.061829950660, -0.172812253237, -0.125914707780, 0.076015055180, -0.036049030721, -0.023906407878, -0.056193809956, -0.132563069463, 0.048315301538, -0.042770843953, -0.215254679322, -0.116298921406, -0.147497683764, -0.157493904233, 0.149008139968, -0.117603339255, 0.051473245025, -0.014871016145, -0.077980801463, -0.094440408051, 0.013119153678, 0.263433992863, 0.359258621931, -0.036871552467, -0.311550915241, -0.092518463731, -0.335173249245, -0.122293040156, -0.211682900786, -0.254910707474, 0.212013423443, 0.091599516571, 0.018741441891, -0.075199276209, -0.148046270013, -0.117516815662, -0.096391580999, -0.025370869786, 0.073763102293, 0.046252407134, -0.107853263617, -0.003316823393, -0.097356960177, 0.004474834539, -0.025405015796, -0.156121969223, 0.024754000828, 0.015734581277, 0.133088797331, 0.043551787734, -0.041878346354, 0.032646898180, -0.042419411242, 0.102767400444, 0.157229438424, -0.141009032726, -0.058273032308, -0.192969605327, -0.229785472155, -0.020583920181, -0.097485013306, -0.102869920433, -0.005618202966, 0.050205722451, -0.045810129493, -0.134151399136, -0.017065037042, -0.012034116313, 0.071111969650, -0.084652960300, -0.143689796329, 0.116260908544, 0.034961663187, 0.144619241357, -0.039419505745, -0.046453598887, -0.169680327177, -0.128643289208, 0.267388314009, 0.021073853597, -0.092140771449, -0.005343735684, 0.003765946254, 0.021654671058, -0.087228178978, -0.204524099827, -0.183730408549, 0.041044607759, -0.074610814452, 0.111576855183, 0.047479063272, 0.063596650958, 0.096606858075, -0.046457577497, -0.047190841287, 0.212375819683, 0.137333780527, -0.084268435836, -0.086997322738, 0.216134905815, -0.063911683857, -0.031374394894, -0.125505581498, 0.092253163457, 0.072185382247, -0.098671525717, -0.065198764205, 0.050739888102, -0.108408465981, -0.231376245618, 0.096766397357, 0.036354638636, 0.191952854395, -0.039826367050, -0.075085185468, 0.189113244414, 0.093697659671, 0.271194815636, 0.139881253242, 0.057101339102, -0.308346271515, -0.356887519360, -0.002425280400, -0.087259441614, 0.156700521708, -0.076751671731, 0.036922559142, 0.126023724675, -0.090713143349, -0.139257624745, -0.084859855473, 0.071845144033, -0.099863559008, 0.039028897882, -0.049159642309, 0.026811262593, -0.188569918275, -0.033840224147, -0.062814690173, -0.028344135731, 0.239268481731, -0.155647054315, -0.125349670649, -0.098322771490, 0.137047559023, 0.035296771675, -0.216855868697, -0.018886184320, 0.099519059062, 0.160697996616, 0.124350503087, -0.048265665770, 0.037531860173, -0.170414045453, -0.041894417256, -0.152096956968, -0.081123836339, 0.012909847312, -0.105047337711, -0.000787575729, 0.023532731459, -0.066643998027, 0.033757701516, -0.103103965521, 0.052601397038, -0.058088082820, 0.108531549573, -0.025521621108, -0.016231752932, 0.146653935313, -0.204361885786, -0.104336179793, 0.036346927285, -0.129717886448, 0.044290434569, 0.062081810087, 0.056674178690, -0.088077865541, 0.043103948236, 0.185057595372, 0.019563809037, -0.086401499808, -0.076859362423, 0.001193633885, -0.211427077651, -0.026151247323, -0.246953636408, -0.029760697857, 0.177950322628, -0.015478666872, -0.112657845020, -0.010546996258, 0.088591240346, -0.110327139497, -0.110976286232, -0.041710365564, 0.060134552419, -0.117173910141, -0.093825846910, 0.128663793206, -0.021974604577, -0.045196525753, 0.026345849037, -0.162577196956, 0.062026124448, 0.066806353629, -0.013572659343, -0.006505296100, -0.113272510469, -0.110703438520, -0.068949401379, 0.026123685762, -0.097069352865, 0.152692750096, -0.148176163435, -0.196143463254, 0.254461824894, 0.021784387529, -0.033505398780, 0.008182266727, 0.003249167232, 0.172115057707, -0.115514025092, 0.037686694413, 0.126089513302, -0.125321418047, 0.213241383433, -0.170227944851, -0.044868841767, 0.152565360069, -0.266255587339, 0.005115411710, -0.004965377506, -0.128878429532, 0.019007496536, -0.144285127521, -0.071018710732, -0.030127374455, -0.196223646402, 0.059448912740, -0.027706354856, 0.069582976401, 0.057165499777, 0.027357630432, -0.121124491096, 0.148737803102, -0.031302824616, -0.065689057112, 0.052674911916, -0.119493275881, 0.220715805888, 0.056329980493, -0.040446124971, 0.035531673580, -0.074174202979, -0.081821449101, 0.068952657282, -0.049413233995, 0.057416282594, -0.023638799787, -0.047896914184, -0.049593605101, 0.117253571749, 0.098030857742, -0.148240953684, -0.052263788879, -0.149353906512, 0.058981120586, 0.094910211861, 0.190591588616, -0.121705032885, -0.082502305508, 0.132694631815, -0.121642082930, 0.145406633615, 0.106828704476, 0.034465547651, -0.102946281433, -0.044692151248, 0.082842878997, -0.198168709874, -0.074253968894, -0.022612212226, -0.053658068180, 0.149719357491, 0.072224125266, -0.082883775234, -0.244014292955, -0.152914077044, 0.221650466323, 0.132679238915, 0.004193407949, 0.067375496030, 0.006853812374, -0.039220359176, 0.015763211995, -0.024511173368, 0.012112246826, 0.139404535294, -0.068536855280, -0.064411982894, 0.060316808522, -0.092265285552, -0.040446009487, -0.215060546994, -0.050188984722, 0.050330009311, -0.095484249294, 0.071006551385, 0.133958891034, 0.010151443072, -0.160335585475, 0.038755573332, 0.000132657588, -0.076405972242, -0.008852005005, 0.116462551057, -0.016373239458, -0.175006493926, -0.095052257180, -0.114145025611, 0.094936907291, 0.173525869846, -0.063366137445, -0.068754337728, 0.083454512060, -0.196759417653, 0.091839864850, 0.168220505118, 0.046340204775, 0.207012549043, -0.025719404221, 0.082125626504, 0.025994440541, -0.055716153234, -0.205441117287, -0.266276925802, 0.092110663652, -0.038233820349, -0.081030897796, -0.015570555814, 0.113836385310, -0.053102441132, 0.056115109473, 0.068558424711, -0.240950286388, -0.062670961022, -0.042191632092, -0.054539699107, 0.003960971255, -0.064455114305, -0.031194357201, 0.034829623997, 0.123081721365, 0.107712015510, -0.033403877169, -0.070743270218, -0.073407970369, 0.116998828948, -0.097496405244, -0.116634272039, -0.007876155898, 0.046386539936, 0.041136544198, 0.040545519441, 0.132692053914, -0.232845678926, -0.009472870268, -0.019921448082, -0.033205527812, -0.001303405268, 0.051131010056, 0.087324678898, -0.198265343904, 0.022311564535, -0.044796384871, 0.003306906205, -0.163760170341, 0.246287003160, -0.046987868845, 0.025929419324, -0.169182881713, 0.039046067744, -0.113733254373, 0.042297106236, 0.189778953791, 0.004287237767, -0.096973419189, 0.033405039459, 0.072020381689, 0.130934879184, 0.076240189373, -0.118209317327, -0.154615640640, -0.022645469755, -0.066402360797, -0.110168762505, -0.038406860083, -0.037175543606, -0.107096686959, -0.312562853098, 0.175674840808, 0.103003069758, -0.197766482830, 0.018513333052, 0.309739768505, -0.173517897725, -0.026286736131, 0.159358695149, -0.358489841223, -0.122616395354, 0.033513702452, -0.077812694013, 0.052957449108, -0.014378883876, -0.086623005569, -0.160147011280, 0.204748824239, 0.166967362165, -0.096885845065, -0.115233220160, 0.060546856374, 0.080973096192, 0.004264142830, 0.174778297544, -0.140435114503, -0.019551588222, -0.074819080532, -0.108773693442, -0.182854965329, 0.044576417655, -0.042601462454, -0.068062707782, 0.113506652415, -0.074359193444, 0.045833673328, 0.022443640977, 0.139072731137, 0.021249441430, -0.009115422145, 0.045379124582, -0.266633242369, -0.218610703945, -0.076164714992, -0.105860508978, -0.102548085153, 0.037376459688, -0.024135069922, 0.022950965911, 0.178281173110, -0.023155519739, -0.147087410092, 0.062135957181, -0.022123662755, 0.203578099608, 0.051354229450, -0.194390699267, 0.118474163115, 0.080262660980, -0.025888388976, 0.054657634348, -0.087250769138, -0.027740800753, -0.284296602011, -0.049507409334, 0.062553822994, 0.060683280230, -0.105030760169, -0.039239097387, -0.047081306577, 0.007482126355, 0.139364048839, 0.053157124668, -0.139547154307, 0.163648739457, 0.050499819219, -0.170031219721, -0.060959614813, 0.162989497185, -0.021615600213, -0.064165636897, 0.123836047947, 0.041003230959, 0.173012435436, -0.030347334221, 0.088763423264, 0.141054362059, -0.004646057263, -0.163817957044, -0.102420128882, 0.041965834796, -0.024476822466, -0.030307628214, -0.137769073248, -0.107092618942, -0.090922296047, -0.303005099297, 0.231444299221, -0.011530529708, -0.037880845368, -0.028103761375, 0.031302481890, -0.138946220279, -0.045287575573, -0.030239263549, -0.047146864235, -0.022169981152, 0.062829136848, -0.162064895034, -0.083801910281, 0.079443372786, 0.000670336187, -0.080771416426, 0.121545456350, 0.030045855790, 0.061948567629, 0.045362386853, 0.137438073754, -0.070596590638, 0.100148633122, 0.006071490236, -0.082516163588, -0.093263067305, 0.010441346094, 0.156115576625, -0.270075112581, -0.019045257941, 0.094705827534, -0.195393890142, 0.135297626257, -0.013827984221, 0.168735474348, 0.027632825077, 0.057062383741, -0.136130198836, -0.072146058083, 0.018304679543, -0.162466540933, 0.043605994433, -0.104551509023, -0.073546148837, -0.210791081190, 0.124292202294, -0.125150948763, 0.095118418336, -0.087654143572, -0.197164297104, -0.116146214306, -0.071525774896, 0.095641516149, 0.210430309176, -0.051798783243, -0.285120725632, -0.065314479172, -0.226992338896, 0.014755158685, -0.029021924362, -0.017271524295, 0.158454895020, 0.056357197464, -0.080210722983, -0.026724347845, -0.128655865788, 0.062631256878, 0.098249033093, -0.103771217167, -0.025955785066, 0.013252292760, -0.165109828115, -0.258358657360, -0.076757207513, -0.094791837037, 0.099500410259, -0.119028776884, 0.012837713584, 0.052536074072, 0.001729952870, 0.018000250682, -0.102906875312, 0.101114928722, -0.043805245310, 0.038579955697, -0.012725139037, -0.129258483648, -0.211159378290, -0.120968110859, -0.161412686110, 0.020855467767, -0.077813364565, -0.190740466118, 0.063202649355, -0.045086812228, -0.204954013228, 0.061181612313, 0.080093964934, 0.052817132324, 0.034621696919, -0.097719132900, 0.037596497685, 0.033112425357, 0.058017499745, 0.058559775352, 0.049621272832, 0.090999834239, 0.133843392134, -0.215126082301, 0.070996299386, 0.077246963978, -0.184436917305, -0.002661254024, -0.035023730248, 0.251056909561, 0.042108751833, 0.121122851968, 0.000572759949, 0.113928288221, -0.037317566574, -0.041821107268, -0.024066183716, -0.061489362270, 0.228586316109, -0.057169012725, -0.001662909170, 0.085609249771, -0.182262599468, 0.018187882379, -0.160476326942, -0.038567315787, -0.114432074130, 0.003836900229, -0.107747972012, 0.031720854342, 0.022915706038, 0.055098097771, 0.093009591103, -0.028429524973, -0.168903142214, -0.186075493693, 0.050064027309, 0.055331099778, 0.047724988312, -0.048965245485, -0.035933386534, 0.002868070966, -0.038388058543, 0.186007559299, -0.001055513276, -0.002254039515, -0.170180857182, -0.099743410945, -0.162333995104, 0.030926909298, -0.000211680657, 0.011699774303, 0.070666871965, 0.108464837074, -0.150167629123, -0.024018932134, -0.020678449422, 0.262224793434, -0.054478574544, 0.103342637420, -0.098498985171, -0.047305610031, -0.057322509587, -0.205643281341, -0.020235722885, 0.058734245598, 0.214875563979, 0.009412275627, -0.098337695003, 0.115283988416, 0.019842153415, -0.039492994547, -0.232027649879, -0.059067189693, -0.015462657437, -0.027255071327, 0.109785325825, -0.049403529614, 0.033966992050, 0.099042043090, -0.006580599584, -0.113581731915, -0.043618503958, 0.074952870607, -0.050290163606, -0.047172918916, 0.042285110801, -0.111458115280, 0.019948499277, -0.005966321565, -0.018800217658, -0.005775644910, -0.152078822255, -0.174230113626, 0.203198641539, -0.086934983730, -0.032708492130, -0.222326055169, -0.154231771827, 0.169237434864, -0.053397256881, -0.143275961280, 0.075683437288, -0.214122846723, 0.098238900304, -0.035359039903, -0.091127745807, 0.018425568938, -0.067932799459, -0.021749431267, -0.015205364674, -0.154048696160, 0.165855899453, -0.078326821327, -0.024898227304, 0.103185102344, -0.036288026720, -0.181926310062, 0.037331715226, -0.106554917991, -0.024578746408, -0.143128693104, -0.120346389711, 0.008954533376, -0.047366335988, 0.078043013811, 0.023612445220, -0.132063284516, -0.004722034559, 0.059425204992, 0.121002465487, 0.123473882675, -0.005165666342, 0.002321088454, -0.039879046381, -0.096514075994, 0.017233334482, 0.012417957187, -0.042573150247, 0.036676555872, -0.198144122958, -0.092559844255, -0.004875838291, -0.047258414328, 0.019419008866, 0.022262528539, -0.008063415065, -0.009411889128, -0.084570676088, 0.080019824207, 0.087788268924, -0.192755177617, -0.099673271179, -0.020757116377, -0.050969742239, -0.035654459149, -0.026514278725, -0.007400193252, 0.068805880845, -0.130031466484, 0.119099944830, -0.052538793534, -0.044502701610, 0.243782252073, -0.146087616682, -0.152783721685, -0.012110886164, -0.141316577792, 0.073005408049, -0.160383984447, 0.068511418998, 0.172324091196, -0.069014228880, -0.102983415127, 0.122935466468, -0.234078839421, -0.002569012810, -0.128614097834, 0.026537530124, 0.077350743115, -0.054795987904, 0.057964302599, 0.030446052551, -0.064731650054, 0.165597245097, -0.025286326185, 0.015700545162, 0.193166241050, 0.002006201539, -0.147927448153, 0.178120240569, -0.154831886292, -0.172586306930, -0.050255794078, 0.020170450211, 0.147892713547, 0.012799801305, -0.145446226001, -0.036705791950, -0.236818879843, 0.072637550533, -0.054597824812, 0.061084657907, 0.097134307027, -0.095783196390, -0.026416288689, 0.053893789649, -0.115322388709, 0.077958621085, -0.102189764380, -0.007528384682, 0.106478773057, -0.071097843349, -0.076348222792, 0.094215124846, -0.180513694882, 0.018087707460, -0.046241972595, -0.030032614246, 0.076233781874, -0.146515339613, 0.032283354551, 0.074502795935, -0.207534223795, -0.070652559400, -0.093813881278, 0.036186113954, 0.034618154168, -0.021448215470, -0.069083385170, -0.126611769199, 0.049871150404, 0.032429311424, -0.113725535572, -0.098109595478, 0.003555466421, -0.003566959407, -0.051758456975, -0.003655883484, 0.006177661940, 0.095438420773, -0.035688042641, 0.042529918253, 0.216423049569, -0.133192822337, -0.215014100075, 0.000712079345, -0.231970146298, 0.032575894147, 0.016138149425, -0.021016916260, -0.005782932974, 0.009653260931, -0.104294300079, 0.034490600228, -0.124716237187, 0.186456620693, 0.075017854571, -0.083101242781, 0.132104754448, -0.091008573771, 0.037583593279, -0.170165136456, 0.061398804188, -0.010580454953, 0.067769460380, -0.114825040102, 0.003184220521, -0.144458562136, 0.161280602217, 0.031158136204, -0.273253142834, -0.099514298141, 0.010641205125, 0.043452590704, 0.070485711098, 0.023624306545, 0.096069037914, 0.036291476339, -0.182366296649, 0.089951902628, -0.068690270185, -0.033675041050, 0.021638398990, 0.037322584540, -0.041208811104, -0.001676696003, 0.176911413670, -0.081757239997, -0.018326491117, -0.086689479649, 0.028370074928, -0.157533064485, 0.079396821558, -0.065712302923, -0.178707301617, -0.056612700224, -0.142811357975, 0.035043038428, 0.064391702414, 0.051652979106, 0.019637670368, -0.017416879535, -0.082422256470, -0.104233413935, 0.041285842657, -0.027853930369, 0.016032995656, -0.032833337784, -0.038312826306, -0.112825863063, -0.177663132548, 0.087943717837, 0.091609947383, -0.080512277782, 0.063799604774, -0.153847575188, -0.072404280305, -0.046927776188, -0.060217473656, -0.041203886271, -0.101347528398, -0.185892671347, -0.133543789387, -0.070843078196, -0.116179600358, -0.162553459406, 0.092860497534, 0.135626628995, -0.041250400245, -0.025290179998, 0.148244112730, -0.117242030799, -0.012672062032, 0.008424709551, -0.242521315813, -0.111002609134, 0.090079620481, 0.083584092557, 0.053784213960, -0.217774152756, -0.083140000701, -0.118709638715, -0.028065064922, 0.069318555295, -0.138226106763, 0.066232405603, 0.080747336149, -0.192459270358, 0.012073249556, -0.040479477495, -0.347807109356, -0.142113730311, -0.022831905633, -0.116970591247, -0.120215453207, 0.023394562304, -0.090733163059, -0.177473798394, 0.135897219181, -0.002312766854, 0.134129628539, 0.023914936930, 0.009254983626, -0.113516323268, 0.032902512699, 0.069638729095, -0.053319569677, 0.053752768785, 0.043968666345, -0.026687022299, 0.008397343569, 0.118194505572, -0.013449551538, 0.050849843770, -0.119952291250, 0.009946261533, 0.001223779516, 0.071218833327, -0.095162816346, 0.012661042623, -0.077810399234, 0.013645561412, 0.143866226077, 0.097412772477, -0.067097149789, -0.153165087104, -0.033010359854, 0.000576014281, -0.020982913673, 0.084167964756, -0.051547650248, -0.056931823492, 0.203618898988, 0.077872239053, 0.021131645888, 0.027108041570, -0.114335432649, 0.014172825962, -0.082312494516, -0.061504632235, 0.097748756409, -0.019265837967, -0.022450065240, -0.059981413186, 0.107161357999, -0.025875201449, -0.103536695242, 0.104590393603, 0.094718523324, -0.111342780292, -0.090519167483, -0.125912070274, -0.012492212467, -0.017682487145, 0.169839590788, 0.101072460413, -0.099294513464, -0.224519759417, -0.242316752672, -0.022524872795, 0.080016739666, -0.139742434025, 0.086662940681, 0.093883529305, 0.061445806175, 0.013562914915, 0.140616372228, -0.048595901579, 0.007023424376, -0.045164823532, -0.304180413485, -0.094703324139, 0.046789973974, -0.034804787487, 0.081605441868, -0.033745445311, -0.039161380380, -0.088396079838, -0.166346505284, -0.042221695185, 0.120508193970, -0.040636576712, 0.069474212825, -0.082192815840, -0.092065423727, 0.056931454688, -0.227118417621, -0.010155890137, 0.056397035718, 0.053321931511, -0.219044327736, 0.128056317568, -0.019950728863, -0.148746892810, 0.117748051882, 0.056080013514, -0.037133254111, 0.030183095485, 0.044464327395, 0.045344445854, -0.028875818476, -0.065999962389, -0.020794447511, 0.018436484039, -0.084396198392, 0.021108914167, -0.052429024130, -0.060701008886, 0.169019356370, -0.013777349144, -0.004220802337, 0.051057845354, -0.139784306288, -0.030859436840, -0.105414234102, 0.146588340402, 0.032377772033, 0.120893903077, 0.194396957755, 0.096956990659, 0.043773077428, -0.021477052942, 0.033704832196, -0.043761014938, 0.075676366687, 0.012108040042, -0.102746009827, -0.062319915742, 0.161043450236, -0.072252668440, -0.021442746744, -0.023833991960, 0.070412181318, 0.004289344419, 0.045830570161, -0.035652913153, 0.027084475383, 0.180249363184, 0.061407968402, 0.048841468990, 0.089074984193, -0.017581952736, 0.022337062284, -0.022897206247, -0.042937837541, -0.021955169737, -0.089880682528, -0.019499748945, -0.125638067722, 0.174085870385, 0.177300676703, 0.039619091898, -0.096815951169, -0.111097589135, -0.154119819403, -0.010776799172, 0.103577002883, -0.280411303043, 0.021469753236, 0.031608816236, 0.080318070948, -0.069651722908, -0.108558453619, -0.154718324542, -0.093211337924, -0.113251924515, -0.016988953575, 0.004101134371, 0.041845701635, -0.023264279589, -0.104821547866, 0.125565648079, -0.030427394435, -0.067231915891, -0.075649522245, 0.060020785779, 0.248823463917, 0.095194891095, -0.059524539858, -0.099473066628, 0.037255283445, 0.008797792718, 0.086055822670, -0.007192888763, -0.021481847391, 0.111327223480, 0.005981179420, -0.045975543559, 0.119648642838, -0.252068758011, 0.090425498784, -0.149216383696, 0.082358881831, -0.102582938969, 0.057667743415, -0.122755207121, -0.001504265703, -0.077872999012, -0.010602835566, 0.026432156563 };
 weight_default_t w5[30720] = { 0.012553668581, -0.098917931318, 0.029401736334, 0.009762632661, -0.038394443691, 0.130332812667, -0.197120055556, 0.030184159055, -0.159192040563, -0.078991018236, 0.054310102016, -0.099243298173, -0.054888062179, -0.115281417966, -0.048406209797, 0.046631347388, -0.085180319846, -0.154037863016, 0.015306815505, -0.100214116275, -0.100068606436, -0.118622623384, 0.031764417887, 0.078065834939, -0.188236683607, -0.058524534106, 0.076405242085, -0.097106128931, -0.052131175995, 0.029426114634, 0.057546544820, -0.005273774732, 0.139912605286, -0.005935059395, -0.017038753256, 0.098688013852, 0.050475805998, -0.150182396173, 0.060355857015, -0.023676479235, -0.098347313702, 0.179696470499, 0.112504146993, -0.058390039951, -0.089072659612, 0.065087430179, 0.048568684608, 0.122571244836, -0.178094595671, 0.198481142521, -0.033610597253, 0.220355272293, 0.024348886684, -0.075160935521, -0.071734786034, -0.014530486427, 0.173988208175, -0.111212700605, 0.070625901222, 0.074007101357, -0.001296959119, 0.011696654372, 0.119475729764, 0.009046797641, -0.080036655068, 0.008300995454, 0.044467158616, -0.027815053239, 0.001371388207, -0.006044644397, 0.038896739483, -0.113438330591, 0.046561487019, 0.012830914930, 0.014244847000, 0.041617859155, -0.099016897380, -0.087047547102, -0.037629578263, 0.092012725770, -0.111584000289, 0.139142617583, -0.061830960214, -0.036144334823, -0.119613617659, -0.070152051747, -0.092751942575, -0.282201737165, -0.238863900304, 0.015148172155, 0.089013308287, 0.006010604091, -0.177841052413, 0.006718432065, -0.018921410665, 0.099432252347, 0.065429568291, 0.009528437629, -0.138455942273, -0.059269882739, -0.038003943861, -0.027561254799, -0.178147584200, -0.082789652050, 0.101313158870, 0.134437829256, 0.043728239834, 0.195931300521, -0.033392012119, 0.053155358881, -0.114923223853, -0.014418774284, -0.023748878390, -0.006238284055, -0.182006537914, 0.115871079266, 0.078892432153, 0.234226092696, -0.161081507802, -0.017621025443, 0.113606393337, 0.110428802669, 0.057007241994, -0.009615345858, 0.167015537620, 0.078820005059, -0.011600404978, 0.031290192157, 0.026565728709, 0.030952284113, 0.162966027856, 0.142526283860, -0.023024501279, 0.080409578979, 0.008961955085, -0.003845329862, 0.054828323424, 0.076750747859, 0.260489612818, -0.002024931367, -0.095860302448, 0.104390546679, -0.118284091353, -0.048895593733, 0.155636548996, 0.039411019534, 0.016054460779, -0.122299179435, 0.031093049794, 0.016405316070, -0.004886905197, 0.147997915745, 0.004594156519, -0.080554783344, -0.123456366360, 0.054111778736, -0.022665876895, 0.059077825397, -0.110377363861, 0.074634648860, 0.020205203444, -0.102072343230, -0.076613262296, -0.032414164394, 0.029902741313, -0.042598869652, 0.133716061711, -0.078852392733, -0.046943794936, -0.014043763280, 0.121383115649, -0.147625535727, -0.006047657691, -0.001463680179, 0.008055383340, -0.048905473202, 0.027942057699, -0.059742718935, -0.112753599882, 0.016308706254, -0.014038132504, 0.074190109968, -0.116818867624, 0.082775145769, 0.227645397186, 0.062948785722, 0.066867969930, 0.143351033330, 0.082900203764, -0.116047531366, -0.053000655025, 0.086060814559, 0.089141659439, -0.086348943412, 0.030363876373, -0.008268637583, -0.021654188633, 0.001404430019, 0.098074346781, -0.033028922975, -0.023543223739, -0.108158200979, 0.071542993188, 0.170144006610, 0.006707822904, 0.234035775065, 0.113313660026, 0.080359265208, -0.007476370316, 0.010444110259, 0.048456862569, -0.048195060343, 0.164370730519, 0.095528632402, -0.065569207072, -0.014456854202, -0.088535062969, 0.068773105741, 0.012938517146, -0.047409791499, 0.194150939584, -0.144905850291, 0.008681775071, -0.117971040308, -0.067146368325, -0.044752817601, 0.066768504679, -0.097920700908, -0.019921232015, 0.038474392146, -0.066266119480, 0.030133403838, -0.025491727516, -0.086898304522, 0.075880125165, 0.086991719902, -0.020592404529, -0.078572504222, -0.020066823810, 0.127055987716, -0.095601029694, -0.009217732586, 0.041439101100, 0.054417528212, -0.110001608729, 0.132795616984, 0.052150983363, 0.127441778779, -0.069126911461, 0.009960326366, 0.110651634634, 0.037381459028, 0.043526917696, 0.001731346012, -0.099434934556, 0.026133920997, 0.089486241341, -0.095586262643, -0.003374286694, -0.152762234211, 0.123648546636, -0.012633020058, 0.102108485997, -0.082843363285, 0.019187591970, -0.020477335900, 0.053223691881, -0.099658824503, 0.096654616296, 0.040716562420, 0.005578920711, 0.080430664122, 0.104176893830, -0.053872790188, 0.032623279840, -0.045741125941, -0.064337819815, -0.071627363563, -0.051994223148, 0.114724539220, -0.094874344766, 0.046921905130, 0.143006622791, 0.063598766923, -0.052407760173, 0.003370115301, 0.042206641287, 0.083364725113, 0.045762665570, -0.007629720494, -0.106495127082, 0.173388838768, 0.023303391412, -0.126351788640, -0.004163330421, -0.095187269151, 0.021588036790, 0.072946697474, 0.060634955764, 0.017250856385, -0.015768786892, -0.046954602003, 0.109012141824, 0.018038708717, -0.044554725289, -0.041033368558, -0.042301248759, 0.003364243777, 0.113437868655, 0.146365314722, 0.046386580914, 0.074242182076, 0.122549802065, 0.062710598111, 0.116992168128, -0.094255298376, -0.019081983715, -0.070611283183, 0.074833951890, 0.125755935907, 0.071310304105, -0.052454330027, -0.126585334539, 0.041749034077, -0.053123392165, 0.004557355307, -0.009206920862, -0.152115002275, -0.070871196687, 0.058673042804, 0.124492071569, -0.055025216192, -0.092823073268, 0.021588563919, -0.038540575653, 0.051525868475, 0.013106093742, 0.025285288692, -0.048122849315, -0.048079941422, 0.121902540326, -0.024212615564, -0.111024513841, 0.114292085171, -0.121492899954, -0.058951593935, -0.038017272949, 0.124162442982, 0.024448210374, -0.060856830329, 0.104843370616, 0.088798180223, 0.076541714370, -0.050042569637, 0.078608721495, 0.089580133557, 0.050138067454, 0.050424277782, 0.098879516125, 0.068979687989, -0.024071387947, -0.038535963744, -0.035259690136, -0.168645411730, 0.107508137822, 0.014656304382, 0.081125587225, -0.040929548442, -0.158837020397, 0.125832676888, 0.127116933465, 0.002926633693, 0.029367551208, 0.021740192547, 0.102344192564, -0.051441103220, -0.081963822246, -0.005625072867, 0.010006163269, 0.011771539226, 0.028147632256, -0.128217309713, -0.059485707432, -0.039274439216, 0.148941814899, -0.170618131757, 0.077953867614, -0.169198274612, -0.064310498536, 0.021659528837, -0.038974195719, -0.042777244002, 0.051757492125, 0.106282845140, 0.061570771039, -0.089866161346, 0.215719997883, 0.035558231175, 0.123892873526, 0.002252687234, -0.135880798101, -0.010269539431, 0.151127636433, -0.123126961291, 0.092036165297, -0.006196759641, 0.040578626096, -0.069955870509, 0.024284433573, 0.012614724226, -0.187515407801, -0.081680193543, -0.073228284717, 0.027628203854, -0.105048432946, 0.120869919658, -0.170334011316, -0.091289944947, -0.067771844566, -0.078683301806, -0.148996695876, -0.050760522485, -0.131082326174, 0.067943640053, 0.084138266742, -0.033657535911, 0.009424719959, 0.055182568729, -0.162405729294, -0.091801464558, -0.029175104573, 0.062069557607, -0.071234621108, -0.026009004563, -0.002741956385, 0.234149217606, 0.010007339530, 0.148414656520, 0.011723004282, 0.063802234828, 0.104383498430, -0.026336655021, 0.173125311732, 0.090411901474, 0.170615777373, -0.014772124588, -0.043059024960, -0.055343970656, 0.056423392147, 0.099122464657, 0.204448580742, 0.091494552791, -0.013356084935, -0.060489278287, 0.065567441285, 0.130454331636, 0.009284797125, -0.039704490453, -0.020123180002, -0.042384229600, 0.133343130350, -0.105524376035, 0.043195489794, -0.082071758807, -0.132973879576, -0.127510458231, 0.015765517950, -0.069898255169, -0.067931085825, -0.046385999769, -0.045557152480, -0.121254839003, -0.133915036917, -0.050270330161, -0.168436363339, -0.099845059216, -0.013812973164, -0.040525823832, -0.131511971354, -0.082784406841, 0.126425653696, 0.025930641219, -0.091730996966, -0.058221790940, 0.148416832089, 0.055713266134, 0.113308623433, -0.082862429321, -0.078077420592, -0.045259274542, -0.056464441121, 0.062477450818, 0.019186468795, 0.063264049590, -0.032754898071, -0.127313211560, -0.028233511373, 0.129035279155, -0.133165746927, 0.143144696951, -0.096753671765, -0.011237213388, -0.079129949212, 0.046716473997, -0.079471193254, -0.105663008988, 0.030260568485, 0.046061430126, -0.081300951540, -0.127561062574, 0.076583340764, -0.035598073155, -0.033673841506, -0.011004481465, -0.125703573227, -0.005260630045, -0.037789333612, -0.002878136002, -0.004707995802, 0.019514093176, 0.027383564040, 0.100954167545, 0.200043186545, -0.034863837063, -0.075127772987, -0.122685633600, 0.058992758393, -0.068772949278, 0.020848054439, 0.011842887849, 0.000620885636, -0.097210668027, 0.004825751297, 0.162188440561, 0.119905829430, 0.042047742754, -0.085464127362, -0.167226165533, 0.051923200488, 0.133059799671, 0.106029339135, 0.036003384739, -0.010026951320, -0.045121893287, -0.061984382570, 0.139843821526, -0.163712799549, 0.105431459844, 0.127166002989, -0.091468945146, -0.025643682107, -0.011321914382, -0.072348393500, -0.001450713957, 0.020042037591, -0.070095703006, -0.090169921517, -0.019698873162, 0.089751243591, -0.155317157507, -0.040433429182, 0.091380596161, 0.093996204436, -0.049057368189, -0.042621534318, 0.031440157443, 0.038559131324, 0.140051260591, 0.051926407963, 0.053765658289, 0.171166688204, -0.025549380109, -0.188505992293, -0.107931137085, 0.019294224679, -0.022982770577, 0.008013426326, -0.106781363487, -0.114677652717, -0.079870834947, -0.027086086571, -0.017295746133, 0.109245829284, 0.051455553621, 0.000412767869, -0.000980163808, 0.159361720085, -0.076421231031, 0.013510386460, 0.081403478980, 0.030655730516, 0.011919260025, -0.102398812771, -0.062628313899, -0.039942786098, -0.002577425446, 0.070384189487, -0.040799751878, 0.067449539900, 0.084549628198, -0.081675760448, 0.029943414032, 0.070458397269, -0.013939961791, -0.028688644990, 0.026382477954, 0.005677607376, -0.044949278235, 0.060940247029, -0.045659273863, -0.119778081775, 0.031656213105, -0.124525651336, -0.062882244587, 0.041650053114, 0.123844273388, -0.001098276465, 0.103806324303, 0.006554308813, -0.103393681347, -0.047323543578, 0.057462453842, 0.094633169472, -0.048480138183, -0.211732506752, 0.032357394695, 0.000549873570, -0.123053006828, 0.061979293823, 0.067997016013, -0.095717713237, -0.117109723389, -0.015193459578, -0.118103288114, 0.133347615600, -0.025628698990, -0.003042378929, -0.048111889511, -0.042804248631, 0.043463651091, -0.127895861864, -0.069927282631, -0.041157037020, 0.006455520168, 0.098405107856, -0.048243675381, 0.034957375377, 0.099923402071, 0.129247441888, -0.022183716297, 0.025395927951, 0.043376587331, 0.017476016656, -0.099513508379, -0.044329177588, 0.019829712808, 0.088811993599, -0.155259639025, 0.178996473551, -0.038644075394, -0.006326777861, 0.096935242414, 0.120738931000, 0.026194380596, 0.121166676283, -0.117533154786, 0.010004423559, 0.154637679458, 0.075686678290, -0.082452580333, 0.037194836885, -0.061246749014, 0.045959088951, 0.015145417303, -0.060091275722, 0.094532452524, -0.019313575700, 0.094412572682, -0.098021291196, -0.014843001962, -0.121678784490, 0.089833870530, -0.100775137544, 0.115465156734, -0.060213178396, -0.003672636813, -0.031589452177, -0.010772100650, 0.049475520849, -0.012321283109, 0.083491064608, -0.056534919888, -0.041705518961, 0.047644685954, 0.129034325480, 0.037967275828, -0.077403165400, -0.079592071474, -0.054770715535, -0.037864986807, 0.139705002308, 0.098537564278, 0.001257244032, 0.098241455853, -0.151379376650, -0.000673760893, 0.096419401467, 0.040693417192, -0.130798324943, -0.016003467143, 0.014644787647, -0.010111258365, -0.037415225059, 0.090135298669, -0.023425251245, 0.057562027127, 0.003110311460, -0.101062923670, 0.153557986021, -0.063194043934, -0.201624423265, -0.041256304830, -0.129664510489, -0.180412486196, -0.031022129580, -0.064302064478, 0.031214881688, -0.089505001903, 0.055939465761, -0.123196996748, 0.038325026631, -0.176928251982, -0.028355438262, 0.000321032334, 0.021367412060, -0.259463876486, -0.042735096067, -0.089141033590, 0.037225618958, -0.154556915164, -0.048913612962, 0.082075595856, -0.022066451609, 0.060617022216, -0.071634948254, -0.016773426905, 0.150464192033, -0.136903554201, -0.093254312873, -0.059622451663, -0.065733470023, 0.037888035178, 0.030808800831, 0.011256539263, 0.150996878743, -0.014388194308, 0.015787947923, 0.078519068658, 0.126404955983, -0.106876857579, -0.063321545720, 0.076651863754, 0.121203094721, -0.075320124626, -0.161067560315, 0.002483387012, -0.103047385812, 0.054580591619, 0.047456517816, 0.072614930570, 0.062511220574, 0.160444304347, -0.032259784639, -0.035889305174, -0.106799744070, -0.048851482570, 0.086922310293, -0.134255662560, -0.057102240622, -0.174969971180, -0.148092418909, -0.003194601275, 0.060592837632, 0.089492574334, 0.075834155083, 0.012112999335, 0.019638774917, 0.047417238355, -0.060657966882, -0.027269272134, 0.158450692892, -0.216069892049, -0.101774185896, -0.074182711542, -0.065515704453, 0.301054090261, -0.103497751057, 0.106324315071, -0.012556324713, 0.051206320524, 0.205916851759, -0.009254319593, 0.024949446321, 0.037270992994, -0.060007017106, -0.081828571856, -0.151717960835, -0.042528554797, 0.010148115456, -0.099831983447, -0.075007021427, -0.126887157559, 0.130924865603, 0.022213043645, 0.102242253721, 0.151617735624, 0.068886101246, -0.089186817408, -0.083503670990, -0.121475391090, -0.037163212895, -0.061050683260, -0.083749145269, -0.081505909562, 0.017766462639, 0.011728519574, -0.062011759728, 0.018572878093, -0.034104246646, -0.101470649242, 0.077910050750, 0.075352512300, 0.116126313806, -0.166060820222, -0.129538565874, -0.085582979023, -0.010967989452, -0.192835032940, 0.044345427305, 0.102374196053, 0.131453275681, -0.097326584160, -0.086641907692, 0.125981897116, -0.001818975317, -0.053328488022, 0.142747521400, -0.094584323466, 0.079897731543, -0.008843516000, -0.032733611763, -0.080922566354, -0.121990479529, 0.047760102898, 0.031264655292, -0.005385647994, 0.048050466925, -0.047433357686, 0.130785658956, 0.066972367465, 0.007149092853, 0.030651964247, -0.010235775262, 0.016685957089, -0.024301309139, -0.052018661052, 0.020140416920, -0.045799460262, -0.009610075504, -0.101901218295, 0.118491321802, 0.225501984358, -0.132087811828, 0.038525268435, -0.018823916093, 0.140059843659, 0.170398443937, -0.002685387619, 0.082945644855, -0.103412017226, -0.067074969411, 0.040865980089, 0.044299770147, -0.027098840103, -0.009770693257, -0.109382130206, 0.057122305036, 0.050253096968, -0.104851618409, -0.010404577479, 0.035142965615, -0.013698168099, 0.003087989986, -0.131615087390, -0.086256019771, 0.130376219749, -0.084201417863, 0.000351574476, 0.110913693905, -0.006109455135, 0.044052828103, -0.140054985881, -0.061899311841, 0.122220285237, 0.145597711205, -0.059222824872, -0.079645074904, -0.001645349781, -0.011298327707, 0.041430182755, -0.095485351980, -0.081987112761, -0.018490295857, 0.122804194689, 0.123459525406, -0.116571992636, 0.053650114685, -0.057952251285, 0.051190119237, 0.016464117914, 0.052740365267, 0.052275616676, 0.089499630034, -0.042618762702, 0.196528732777, 0.081521935761, -0.061827220023, 0.047105956823, 0.055269449949, -0.113682553172, 0.103871501982, 0.052074532956, 0.152399063110, 0.143379405141, -0.033835213631, -0.010557468049, 0.023947119713, 0.105566039681, 0.083949930966, -0.007979030721, 0.161033436656, 0.079326644540, 0.053039357066, 0.100868754089, 0.162937030196, -0.085102021694, -0.168955758214, -0.046480976045, -0.123233959079, 0.073248252273, 0.047962203622, -0.094976611435, -0.006861210335, -0.037672437727, -0.148933261633, -0.021023221314, -0.077022917569, -0.204092249274, -0.082295112312, -0.135342955589, -0.007596810348, -0.033984079957, 0.097517132759, 0.012840126641, 0.094214864075, -0.116931304336, 0.136774078012, -0.147030100226, -0.023813484237, 0.191547095776, -0.047035288066, 0.067109115422, 0.005873235408, -0.037093121558, -0.099404282868, 0.255552589893, 0.029316406697, -0.050543248653, -0.037032265216, 0.047245595604, -0.041776634753, 0.001684358343, 0.029606938362, -0.023024467751, 0.081977769732, 0.116879612207, 0.139373734593, -0.084993928671, 0.000041819796, -0.049410600215, -0.072016596794, 0.076039955020, 0.110127829015, 0.050934255123, 0.010700243525, 0.073491811752, -0.180795788765, 0.007654004730, -0.036741293967, -0.112835757434, 0.083527311683, -0.053223360330, -0.127202764153, -0.130796253681, 0.094997994602, -0.154526755214, 0.211929470301, -0.195966541767, -0.079608127475, -0.037919055670, -0.070987917483, -0.097535409033, -0.004112753551, -0.056472726166, 0.060141015798, 0.020095277578, 0.040331479162, -0.046205144376, 0.031717196107, -0.026707334444, 0.097780451179, -0.084033198655, -0.059693988413, -0.168668642640, 0.018343152478, 0.081086233258, 0.151153430343, -0.196626186371, -0.128131613135, 0.051896091551, 0.018386470154, -0.067982397974, -0.026519034058, -0.170938283205, 0.128843382001, -0.197268947959, 0.091281719506, -0.175323188305, -0.116902776062, -0.107372865081, -0.129793077707, -0.025154888630, 0.078351356089, 0.100613839924, -0.146203726530, 0.164726808667, 0.048679381609, -0.026843875647, 0.021710241213, -0.133468642831, -0.088051140308, -0.009823332541, -0.116615198553, 0.150590151548, -0.019138120115, -0.066112168133, 0.083915866911, -0.136489942670, 0.052525855601, 0.097949028015, -0.052844870836, -0.082863248885, 0.115930922329, -0.115869522095, 0.006109268405, -0.163913324475, -0.051756333560, -0.086519487202, -0.007228294387, 0.105650089681, 0.028051415458, -0.068100601435, 0.041108492762, 0.146122470498, -0.082473643124, 0.085834868252, -0.011616731063, 0.048195708543, -0.088207192719, 0.111610934138, -0.033006601036, 0.043333102018, -0.088612094522, 0.027076562867, 0.092478968203, 0.050369054079, -0.081457309425, -0.070838741958, 0.036442194134, -0.028570130467, 0.068232752383, -0.058510381728, 0.017210293561, 0.008201587945, 0.049641791731, 0.041393630207, 0.020628439263, -0.114851050079, -0.093391120434, -0.030584644526, -0.011677956209, -0.011951886117, 0.122254647315, -0.060413267463, -0.069866538048, 0.012368763797, -0.096564196050, -0.015961404890, 0.077687375247, -0.088093280792, 0.008178750053, -0.100567370653, -0.048162907362, 0.097477920353, 0.059789177030, -0.115336693823, -0.026500094682, -0.013455802575, 0.101602405310, -0.111195117235, -0.049529336393, 0.017704669386, 0.084818132222, 0.099151998758, 0.088628314435, 0.086177393794, 0.094365648925, -0.065366558731, -0.031274024397, 0.004402431659, -0.016982033849, 0.075237840414, -0.046627793461, 0.122982926667, 0.049978647381, 0.115798488259, 0.010393540375, 0.098508059978, -0.013766808435, 0.101747073233, -0.064942628145, 0.095086731017, -0.016033133492, 0.056612476707, -0.006970727816, 0.009052883834, -0.079999431968, 0.021552143618, -0.049541898072, 0.071492917836, 0.005761609878, -0.108635984361, -0.048127040267, 0.003958113492, 0.116872452199, 0.035574547946, 0.070435315371, -0.112188659608, -0.103703431785, -0.099372342229, -0.078726485372, -0.027630180120, 0.038281310350, 0.032035771757, 0.065198011696, 0.098026916385, -0.075550079346, -0.046647377312, 0.044777415693, 0.055777892470, -0.056719828397, -0.061247035861, -0.121136859059, 0.062899425626, -0.067133508623, 0.104400403798, 0.087543681264, 0.105608679354, 0.006315043662, 0.091129876673, 0.064303480089, 0.124872744083, 0.119196839631, 0.052395042032, 0.092859245837, 0.094432860613, 0.038507461548, 0.121024966240, 0.088788248599, -0.002881380729, -0.125993758440, -0.099667355418, 0.058253869414, 0.078969396651, 0.030525499955, 0.104303695261, -0.057010140270, -0.014301760122, -0.059120226651, 0.080985374749, 0.004903171211, -0.036971304566, 0.048625458032, -0.030776759610, -0.055515941232, 0.039309434593, -0.037492416799, -0.149131521583, 0.166690662503, -0.026745369658, -0.088057398796, -0.029770050198, -0.057117342949, -0.083427965641, 0.008301154710, 0.049082752317, 0.083459064364, 0.135403603315, 0.149998784065, 0.034034136683, -0.026558760554, -0.142044559121, 0.126012727618, 0.093649476767, -0.073333203793, -0.013647723943, -0.093932785094, 0.151533618569, 0.007117505185, -0.065151363611, -0.068829402328, 0.084575124085, 0.006415751763, 0.027826400474, 0.054774384946, 0.129287824035, -0.096829965711, -0.025787983090, -0.022421631962, -0.155741900206, 0.129531279206, -0.036489006132, -0.177634507418, -0.095090009272, -0.103447526693, -0.114497438073, 0.018482381478, -0.188571885228, 0.136732578278, 0.106775023043, -0.031533524394, -0.090084336698, -0.019114146009, 0.088968381286, 0.046146269888, -0.020498696715, -0.095694832504, 0.174117922783, -0.175890713930, -0.030266849324, -0.005634714384, 0.014329572208, -0.030050143600, -0.133843466640, -0.138777017593, -0.116309523582, 0.066805563867, -0.043981023133, -0.044764269143, -0.208212077618, 0.164379775524, 0.069565832615, -0.060025703162, -0.021054415032, 0.173094853759, -0.006572581362, -0.025269772857, -0.039061184973, 0.052494283766, 0.100757658482, 0.035786867142, 0.067483693361, -0.035691034049, 0.020229721442, -0.077920533717, -0.091496542096, -0.067299284041, -0.121779099107, 0.051507826895, 0.139645427465, -0.067898742855, 0.037012904882, -0.002142563695, 0.095159195364, 0.010695349425, 0.066200681031, -0.112105935812, -0.003219317878, 0.005385524593, 0.082944646478, -0.065719366074, 0.077167421579, 0.006521603093, -0.175647661090, -0.032858595252, 0.041903328151, -0.068827509880, 0.027747342363, 0.043645694852, -0.090190090239, 0.070566803217, 0.048184026033, 0.239861443639, -0.036524705589, 0.078677214682, 0.152763679624, -0.007741842885, 0.114689305425, 0.033011686057, -0.093389019370, -0.146126359701, 0.019597025588, -0.080096483231, -0.088179171085, 0.101634383202, -0.084170594811, 0.050535462797, -0.145549148321, 0.081595294178, -0.064230389893, -0.118208266795, -0.190166875720, -0.111789107323, -0.074398361146, 0.069784216583, -0.102661907673, 0.067861571908, -0.095817640424, 0.065768204629, -0.016289802268, 0.069073013961, 0.006292613223, 0.189768686891, -0.054014347494, -0.273266136646, -0.195423007011, -0.100659497082, -0.146397590637, -0.099201373756, -0.050265155733, 0.015716593713, -0.107888437808, 0.056481022388, -0.085734009743, 0.154323145747, -0.095827557147, -0.084913536906, -0.092630997300, -0.082489334047, -0.060578875244, -0.064593419433, -0.058852300048, 0.044402305037, 0.006432133727, -0.029921690002, 0.042315952480, 0.058063093573, 0.035082843155, -0.047346454114, -0.025457158685, 0.041121300310, 0.165487393737, -0.063677601516, -0.058917477727, -0.030606452376, 0.178228810430, 0.085518583655, -0.078383758664, -0.073878452182, -0.036640327424, -0.025778679177, -0.150395557284, 0.134146273136, 0.086600989103, -0.003482472384, -0.140648081899, 0.098069950938, 0.026116829365, 0.044664911926, -0.008081095293, 0.061404947191, -0.035116106272, -0.070434927940, 0.226578056812, 0.063240766525, 0.087445147336, 0.034015551209, 0.131077006459, 0.034356720746, -0.011895107105, -0.112604282796, 0.071583747864, -0.018040003255, 0.043638665229, 0.019474035129, 0.057918567210, 0.030601037666, -0.201183617115, -0.139698818326, 0.013232746162, -0.021664893255, 0.137046754360, -0.061478868127, -0.102625794709, 0.016286047176, 0.213606223464, 0.070492394269, 0.061627294868, 0.037614949048, -0.043450385332, -0.106797158718, 0.043879423290, 0.026259688661, 0.124207019806, -0.197861328721, 0.033148873597, -0.010927239433, 0.139974102378, -0.045598942786, 0.204555526376, -0.062045093626, 0.116687022150, 0.024124115705, 0.026557732373, 0.026107922196, 0.182885333896, 0.116756305099, 0.012473885901, -0.018846292049, -0.001781285042, 0.066668838263, -0.066642880440, 0.046991761774, -0.140366718173, -0.006385045126, 0.103141114116, 0.118046566844, 0.083237864077, -0.093285635114, 0.029510026798, 0.063170231879, 0.096330396831, -0.024936171249, 0.110448546708, -0.180634349585, 0.160851374269, -0.186332866549, -0.025994595140, -0.042604304850, -0.071614742279, -0.062350794673, -0.084657222033, -0.143022388220, -0.008412504569, 0.000995593378, -0.096066415310, -0.073640733957, 0.015589289367, 0.107901312411, 0.116919621825, -0.030665285885, 0.131758898497, -0.011530102231, 0.107227288187, 0.145537063479, -0.087083958089, -0.036482166499, -0.081100374460, -0.077400751412, 0.039165213704, 0.012944659218, 0.044957108796, -0.085555844009, -0.075662627816, 0.090964481235, 0.040671490133, -0.035311695188, -0.048553731292, -0.162163406610, 0.099694460630, -0.087208859622, 0.044668365270, -0.101999618113, -0.064312972128, 0.137691080570, 0.087436601520, 0.056056503206, 0.008410383947, 0.051892798394, 0.037922438234, -0.147147089243, 0.027291201055, -0.141575351357, 0.038883909583, 0.001620862051, 0.080550372601, -0.065693162382, -0.163211658597, -0.086456194520, -0.140903174877, -0.021649954841, -0.130921840668, -0.006735745352, 0.101383782923, 0.117785930634, 0.013561302796, 0.046638742089, 0.129849359393, 0.115379072726, 0.079848296940, 0.121649958193, -0.030366968364, 0.166571035981, -0.039029058069, -0.070208504796, -0.038240797818, 0.146144151688, 0.013047873974, -0.074341475964, 0.123858205974, 0.041932869703, -0.056549739093, -0.082911178470, 0.073656074703, 0.073360718787, -0.156367316842, -0.058886658400, -0.031573928893, -0.018397053704, -0.070625431836, 0.115809902549, 0.014944162220, -0.014873887412, -0.071792282164, 0.082093499601, 0.024522323161, 0.022914767265, 0.022050986066, -0.126867026091, 0.028062583879, -0.024757448584, -0.095297068357, 0.057743359357, -0.020045382902, 0.063922874629, -0.041349478066, 0.036553699523, -0.085725143552, 0.050615645945, 0.038284774870, -0.010386775248, -0.104594811797, -0.023754281923, -0.161955446005, -0.019187817350, -0.048831257969, -0.030433613807, 0.180072560906, 0.009923268110, -0.135605812073, -0.101560585201, -0.113527245820, -0.098274610937, 0.058671314269, 0.066463321447, 0.020215656608, -0.114702366292, 0.020266905427, 0.108892805874, -0.138471558690, -0.076662726700, 0.090314067900, 0.079268366098, -0.091460324824, 0.042820375413, -0.055917311460, 0.018973786384, 0.080985970795, -0.155173420906, 0.091764688492, -0.037715449929, 0.099650643766, -0.114628560841, -0.158960238099, -0.116732977331, 0.135981410742, 0.056529212743, -0.084916904569, 0.132655367255, -0.042978532612, 0.041600681841, 0.064051739872, 0.020854275674, -0.046697843820, -0.170489430428, 0.093886815012, 0.097277790308, 0.112751320004, -0.131775751710, -0.122566111386, -0.075403787196, 0.145995825529, -0.099788598716, -0.060988489538, 0.099898450077, 0.140465408564, -0.044038824737, -0.068638049066, -0.068394176662, -0.013907287270, -0.158686012030, 0.010944065638, 0.000554525293, 0.101045869291, -0.016119405627, 0.010898721404, 0.013351040892, 0.198306843638, 0.011008039117, 0.181380122900, 0.030200690031, -0.000344179862, -0.082809694111, 0.151173874736, 0.149292394519, -0.133283346891, -0.083188213408, 0.102112174034, 0.057967923582, 0.046148128808, 0.053775262088, 0.121034450829, -0.087293542922, 0.153687834740, 0.001579974778, 0.097101949155, 0.039235353470, -0.062318257987, -0.018306156620, 0.000084394283, 0.168609455228, -0.093186758459, 0.012795817107, 0.109840452671, -0.015564147383, 0.137067943811, 0.041549041867, 0.022266834974, -0.119592681527, 0.122801691294, 0.168082430959, -0.013134271838, -0.095984458923, 0.079261042178, 0.023022897542, 0.057523183525, 0.055413834751, 0.001976940781, -0.164524897933, 0.078246176243, 0.153150975704, -0.030929623172, 0.020231544971, 0.122908964753, -0.002584824571, -0.150252819061, 0.074928745627, -0.157521694899, -0.034321643412, 0.113952286541, -0.163227498531, 0.012376384810, -0.050659157336, 0.032634895295, -0.010384835303, 0.068655803800, -0.056165695190, -0.032636445016, -0.087145581841, -0.100725859404, -0.029130555689, -0.061896789819, -0.061444159597, 0.061589259654, -0.001258197823, 0.030897201970, 0.086853638291, 0.001581030199, 0.037770431489, -0.078533999622, -0.021017258987, 0.116835929453, 0.026236303151, 0.121565259993, -0.086431235075, -0.115291908383, 0.072268545628, 0.066092446446, 0.130460396409, 0.012180761434, 0.131308034062, -0.008690598421, -0.098515972495, 0.153653502464, 0.043055064976, -0.098710820079, -0.034372866154, -0.007175399922, 0.205428183079, -0.092539981008, -0.094518251717, 0.122467458248, -0.047334413975, 0.031378101557, -0.192594856024, 0.185942411423, -0.126313850284, 0.089914925396, 0.063063718379, 0.088615536690, 0.091245517135, 0.118922658265, 0.189718186855, -0.057056747377, -0.062344320118, -0.092150725424, 0.242609202862, -0.093491055071, 0.018120942637, -0.033327255398, 0.083944991231, 0.261631309986, 0.165068492293, 0.092938371003, -0.029738875106, -0.082960724831, -0.060145527124, 0.104208081961, 0.103463903069, 0.087570682168, 0.071302168071, -0.081954590976, -0.058816913515, 0.152710631490, 0.058392945677, -0.031383097172, -0.033989716321, 0.074141263962, 0.124529451132, 0.135052382946, 0.050015982240, -0.015303191729, -0.188301056623, -0.192187592387, -0.157459318638, -0.077787950635, -0.061139103025, 0.078611515462, -0.122976593673, -0.018101146445, 0.262584149837, -0.032392550260, -0.148645251989, -0.055866975337, 0.077741213143, 0.071553640068, -0.108260452747, -0.100792177022, 0.087453089654, -0.048402432352, -0.196088403463, -0.039645880461, -0.091420754790, 0.058220416307, 0.112876623869, 0.094049662352, -0.003082706826, 0.048898991197, 0.089992552996, -0.122765675187, -0.094758190215, 0.133292183280, -0.103147104383, -0.091464661062, 0.008423837833, 0.093267127872, -0.098713323474, 0.065496467054, 0.035774119198, 0.106665305793, -0.009422622621, -0.026450349018, 0.106745868921, 0.028394987807, 0.013868497685, -0.017367519438, -0.031331613660, -0.095735549927, -0.025451004505, -0.036353286356, -0.033450540155, -0.018611254171, 0.044403556734, 0.036318354309, -0.077084153891, 0.131050795317, -0.111492961645, -0.025516986847, 0.002270239173, 0.124007157981, -0.028579073027, 0.093065246940, 0.098286636174, -0.020821779966, 0.127355009317, -0.007167831995, -0.005862216465, 0.018923694268, 0.109038420022, 0.043524898589, -0.030831083655, -0.072792716324, 0.040028788149, 0.262913018465, 0.037135675550, -0.152649775147, -0.142231598496, 0.053602699190, 0.068114995956, 0.050993669778, -0.145660668612, 0.089380703866, -0.110353618860, 0.007112476975, 0.084616832435, -0.061938531697, -0.005931499414, -0.060686640441, -0.119516573846, -0.042546391487, 0.004265928641, -0.159113794565, 0.118468910456, 0.044322293252, 0.083132132888, -0.116517424583, -0.038379050791, 0.104640513659, 0.037780638784, 0.101003505290, -0.054907314479, 0.077131927013, -0.108278565109, 0.080220296979, 0.169469207525, 0.062702842057, -0.037900947034, -0.174325302243, -0.010227281600, -0.237797141075, -0.096367523074, -0.108393609524, -0.029568461701, -0.010654666461, -0.102427333593, -0.054630402476, -0.157047316432, -0.011353806593, 0.039500534534, 0.056069053710, 0.044760067016, -0.053328458220, 0.109539709985, 0.074438765645, 0.016457421705, 0.072229444981, 0.099157512188, 0.141284391284, 0.116937130690, 0.023080915213, -0.047898568213, -0.076499760151, 0.032377794385, -0.078167706728, -0.107763826847, -0.124733909965, 0.077854171395, 0.087078094482, -0.062377233058, -0.050081655383, 0.200734272599, -0.068515919149, -0.100482180715, -0.060469873250, 0.122125454247, -0.033032819629, 0.055548723787, -0.147496178746, 0.014631558210, 0.087185420096, -0.067038752139, 0.063370458782, 0.142289727926, 0.028376478702, 0.027524935082, -0.106301292777, 0.001707355957, 0.054273497313, 0.012997763231, 0.104426346719, 0.079066924751, -0.066138692200, 0.109733700752, 0.135027021170, 0.125896394253, -0.009765255265, 0.123591646552, -0.178692832589, -0.030628696084, -0.017174853012, -0.062088757753, -0.040378022939, 0.096815787256, 0.077202565968, 0.141959041357, 0.143709033728, 0.073779240251, -0.207064703107, 0.113881729543, -0.083596281707, -0.108414493501, -0.058861255646, 0.129519626498, 0.087932534516, -0.030025493354, 0.055060390383, -0.047350347042, -0.075740352273, 0.082335650921, 0.084158368409, 0.108318530023, 0.053633011878, 0.160615891218, -0.174688979983, 0.120213136077, -0.043332677335, -0.096893526614, -0.224245280027, -0.160718128085, -0.081002727151, -0.013054947369, 0.018849803135, -0.122714191675, 0.044715650380, -0.095257043839, -0.134326294065, 0.143365964293, 0.023480240256, 0.062234804034, 0.056603290141, -0.114115178585, -0.056056953967, 0.089628443122, -0.166730418801, 0.053444996476, -0.078517220914, -0.051672719419, -0.079395309091, 0.001650972525, 0.012235013768, 0.015453315340, -0.031965684146, -0.080916188657, 0.005962370895, 0.025536177680, -0.076177388430, -0.074013739824, 0.027703944594, -0.108187139034, -0.035191465169, -0.043311096728, -0.034287136048, -0.085655175149, 0.102963045239, 0.213361248374, -0.141594409943, -0.102895744145, -0.127526074648, 0.071360863745, -0.051141254604, -0.045003976673, -0.098289847374, -0.075226143003, -0.026611546054, -0.081079579890, -0.052060745656, 0.003839056939, -0.278992056847, -0.072083137929, 0.118620276451, 0.086820855737, 0.050404481590, -0.051246710122, 0.029300011694, -0.066299080849, 0.043173283339, 0.189694032073, 0.138994768262, -0.093863725662, 0.011374577880, -0.034248962998, -0.094976469874, -0.008596045896, -0.071679472923, -0.034037973732, 0.111735694110, 0.108978390694, 0.094098649919, -0.054465070367, 0.222603574395, -0.003116921289, 0.032797031105, -0.011801704764, -0.024956889451, -0.166527360678, 0.128231957555, -0.040841627866, 0.037118621171, -0.000310949166, 0.016285497695, -0.077152505517, -0.191276907921, -0.025123964995, -0.095198735595, 0.006929484662, 0.123058862984, 0.013718815520, 0.150414183736, -0.019767137244, -0.039404351264, 0.074373275042, 0.198989152908, -0.051002729684, -0.021028745919, -0.046243716031, -0.120762467384, -0.181189253926, -0.121470987797, 0.050030529499, 0.135891243815, -0.065660007298, 0.027996443212, -0.142147973180, 0.040256887674, 0.112658940256, 0.066608853638, 0.089219823480, 0.103440426290, -0.022014759481, -0.120838165283, -0.032175548375, 0.001784538152, -0.191855251789, 0.032775536180, 0.065143376589, -0.079756759107, 0.177447587252, 0.031840361655, -0.012715283781, 0.215741127729, -0.023333596066, 0.063289612532, -0.140180274844, 0.037150610238, 0.011826938950, -0.107290670276, -0.205288693309, 0.047719039023, -0.058389894664, 0.039173845202, -0.025771459565, -0.057380780578, 0.038616653532, 0.086026124656, 0.004304414615, 0.001066131983, -0.036322727799, -0.000617728219, 0.061051618308, -0.042240999639, -0.089050069451, 0.039191644639, 0.007872790098, -0.033560156822, 0.000481786032, -0.023339053616, 0.127721846104, 0.002103924286, -0.063374087214, -0.057621493936, 0.058779533952, -0.116857632995, -0.046043828130, -0.060115098953, 0.091241270304, 0.096569009125, 0.068376563489, -0.129195779562, -0.068633541465, 0.011445501819, -0.077146261930, -0.078314170241, 0.072807885706, 0.034479629248, 0.150081768632, 0.060002051294, 0.104638077319, 0.076648972929, -0.007491596974, -0.018861282617, -0.073485150933, -0.085900306702, 0.093004226685, 0.055244274437, -0.182632595301, -0.277885735035, -0.023299347609, -0.017739294097, 0.058972209692, -0.043971292675, 0.182362079620, 0.095637917519, -0.045922320336, -0.065662935376, 0.066887691617, 0.089955769479, -0.173686668277, -0.054920166731, 0.058307364583, -0.092893205583, -0.014391203411, -0.148417785764, 0.021367499605, -0.060303390026, -0.090467005968, -0.122427150607, -0.060798909515, -0.024710612372, -0.148305535316, 0.047802783549, 0.007270918228, 0.112547807395, -0.060620162636, 0.018288968131, 0.127372145653, 0.079070240259, 0.023610459641, 0.044938717037, -0.034814726561, 0.000029048446, -0.083678565919, 0.084064811468, -0.082348279655, -0.107755407691, -0.092605002224, -0.021862667054, -0.076596811414, -0.105489529669, -0.010484029539, -0.111590050161, -0.051832620054, 0.064391352236, 0.057132631540, -0.045386638492, -0.046413507313, 0.054834667593, 0.063843272626, -0.127658113837, 0.055238012224, 0.091009065509, 0.088829964399, 0.125401586294, -0.006056771148, 0.035684559494, -0.038926854730, 0.052922639996, 0.153708279133, -0.106756493449, 0.136499360204, 0.035410642624, 0.119764797390, 0.138795420527, 0.023509426042, 0.052352245897, -0.066773496568, -0.050090141594, 0.113980293274, -0.042837001383, 0.077199652791, 0.015177614056, 0.085209913552, -0.051791992038, -0.005466459319, -0.115298837423, -0.149199694395, 0.100175723433, 0.109644420445, -0.152171745896, -0.099392369390, -0.145020291209, 0.041057638824, -0.147082582116, 0.012862727977, 0.158077582717, -0.024026129395, 0.041465669870, -0.005397847854, 0.037526570261, 0.099036559463, 0.028568837792, 0.071432515979, 0.000712188485, -0.002046021633, 0.069166481495, -0.060079146177, -0.055047973990, 0.079216137528, 0.106980875134, -0.059586383402, 0.142863556743, 0.069308429956, -0.107857875526, -0.154126584530, -0.060017880052, 0.093338198960, 0.098325200379, -0.019548788667, -0.147161930799, 0.021007070318, 0.043860871345, 0.013991882093, -0.027913313359, 0.138671860099, -0.097548045218, 0.065315634012, 0.029219806194, 0.164618104696, -0.096702165902, 0.128319397569, -0.001867748098, 0.165332913399, 0.092113420367, -0.094708837569, -0.075592741370, 0.122251063585, -0.028593648225, -0.011751442216, 0.125397026539, -0.001726538991, 0.050073586404, -0.070593215525, -0.096897773445, -0.004535084125, 0.052188355476, -0.123994745314, -0.106986343861, -0.085232764482, 0.037966169417, 0.031689241529, 0.085887663066, -0.006447603926, -0.011011503637, -0.065320529044, 0.079279333353, 0.153951674700, -0.108841657639, -0.093501992524, -0.096152156591, -0.037723336369, -0.059080109000, 0.068890795112, -0.078497670591, -0.018729863688, 0.053608927876, -0.025081925094, -0.132096379995, 0.070102028549, 0.064652875066, 0.119841828942, -0.030972197652, -0.093398869038, 0.100342929363, 0.058760847896, -0.112441375852, 0.074747480452, -0.094777725637, 0.058295715600, -0.220809534192, 0.017242079601, 0.001388301840, 0.110563173890, -0.049871094525, -0.010559506714, -0.216155335307, -0.037115398794, 0.047060493380, -0.025192167610, 0.021946061403, 0.171032950282, -0.109171941876, -0.012764755636, 0.110972970724, 0.214057743549, 0.010656568222, -0.114370696247, -0.098940551281, 0.002072617644, 0.148796573281, 0.030574388802, -0.184885725379, 0.076747305691, 0.181986093521, 0.081518106163, 0.081121459603, -0.108511373401, 0.007173963822, 0.044337607920, -0.127038612962, -0.045247998089, -0.065090790391, -0.103177458048, -0.013354110532, 0.011555342004, -0.003154293867, 0.040410336107, 0.058054685593, -0.120331726968, 0.188630014658, -0.129529953003, -0.033783622086, 0.071893475950, 0.039638563991, -0.118981137872, 0.014215503819, -0.031654763967, 0.071173585951, -0.042648173869, -0.066044077277, -0.049282778054, 0.154841482639, 0.107407622039, 0.114276535809, -0.049601491541, -0.118844531476, 0.099466703832, 0.128114029765, -0.114418424666, 0.073354147375, -0.014537043869, -0.102940961719, 0.189367905259, -0.059310961515, 0.114166274667, 0.092448011041, -0.063154272735, 0.144589915872, 0.034209724516, 0.065881475806, -0.178630873561, 0.156340405345, 0.145956158638, -0.043781794608, 0.003416755702, -0.058666735888, 0.012341337278, -0.058552268893, -0.030778519809, 0.022187458351, -0.096284508705, 0.061131861061, 0.102337241173, 0.143573179841, 0.032330382615, -0.051234543324, -0.089720465243, 0.022741850466, 0.003961008973, 0.026898028329, -0.001325884834, -0.153500869870, -0.046691857278, -0.109796851873, -0.087897494435, -0.017727673054, -0.150041446090, -0.169286966324, -0.146947860718, -0.087488465011, -0.081535927951, -0.200523108244, 0.057979259640, 0.059181865305, 0.029688676819, 0.035382688046, 0.109486050904, -0.112222634256, 0.016664616764, -0.051451470703, 0.082684040070, -0.130441546440, 0.053790330887, -0.102750971913, -0.049665778875, -0.147269964218, 0.085067361593, -0.206343799829, 0.109799616039, 0.064850151539, -0.008197682910, -0.066846415401, -0.089044734836, 0.009602627717, 0.061053600162, -0.122748062015, 0.060255017132, -0.092528469861, -0.072644896805, -0.039797477424, 0.149281218648, -0.018278222531, -0.054992556572, 0.040843464434, 0.091646380723, 0.114942133427, -0.060214363039, -0.044931769371, -0.016017045826, 0.131929710507, -0.040721099824, -0.099568061531, 0.060518980026, 0.117309689522, 0.075580283999, 0.144091203809, 0.029629217461, -0.068037793040, 0.164925083518, -0.030859928578, 0.032819349319, 0.035700172186, 0.010051160119, -0.057612039149, 0.052314974368, -0.063508689404, -0.110438063741, 0.123443171382, -0.117457427084, 0.010661436245, -0.116838008165, 0.139554828405, 0.061472777277, -0.018340021372, 0.115280255675, 0.084910482168, 0.035745281726, -0.098453290761, -0.027882218361, 0.116015784442, -0.000325661094, 0.097246326506, 0.044464401901, -0.044856455177, -0.005740686320, -0.073652908206, 0.025599405169, 0.009741497226, 0.026557914913, 0.095909081399, -0.076720930636, -0.010901642963, 0.127888783813, 0.052953246981, -0.102319844067, 0.049454461783, -0.058792278171, 0.149110227823, 0.065680615604, -0.062763899565, 0.098006382585, 0.031947202981, -0.080859810114, -0.073488458991, 0.082959234715, 0.111611455679, 0.000186101126, -0.021808067337, 0.199290409684, 0.103150799870, -0.089842498302, 0.159252613783, -0.128842756152, 0.017368827015, -0.092891432345, 0.086572125554, 0.055790483952, 0.133684054017, 0.080209404230, 0.009269512258, 0.172060415149, 0.077643476427, -0.007109621540, 0.092619940639, 0.037498433143, 0.039571598172, 0.148648470640, 0.101905010641, 0.085858479142, 0.075186468661, 0.069393515587, -0.103774182498, -0.059549201280, -0.168549865484, -0.117827653885, -0.016366429627, -0.035624124110, 0.072184160352, -0.064234212041, 0.192091643810, -0.071853369474, -0.159298315644, 0.078084208071, 0.010803530924, 0.130536973476, 0.001325931633, -0.018700972199, -0.004821042530, -0.056640893221, 0.035668283701, 0.021021913737, 0.055774468929, -0.071613647044, 0.086927533150, 0.042132984847, -0.008903512731, 0.125022321939, -0.112568266690, 0.057089287788, 0.107227936387, -0.150603324175, -0.061315871775, -0.062040604651, 0.112354129553, 0.093063831329, 0.046125419438, -0.128393724561, 0.052168782800, 0.178570285439, 0.104497872293, 0.051889631897, -0.020298380405, 0.092288956046, -0.017315817997, -0.080132581294, -0.077890843153, 0.057557303458, -0.077083654702, -0.069082066417, 0.145024672151, 0.140351742506, 0.114339984953, -0.148803219199, -0.143414527178, -0.014723251574, 0.012996364385, 0.210350275040, -0.056429669261, 0.056983046234, 0.044938426465, -0.057639606297, -0.065807834268, -0.087044931948, -0.014451994561, -0.068769685924, 0.069733239710, -0.026948319748, 0.087889946997, -0.168126195669, 0.009654182941, 0.047792904079, 0.013298550621, -0.108397170901, -0.099215149879, -0.022549023852, 0.067605242133, -0.015713952482, 0.109946690500, -0.192178115249, -0.017801193520, -0.071826629341, 0.126801013947, 0.045124545693, 0.032807320356, 0.044233236462, 0.141920074821, 0.100568614900, 0.087755754590, 0.027386406437, -0.041278392076, 0.039348144084, 0.033274009824, 0.131798565388, 0.033575128764, -0.198416262865, 0.033894259483, -0.097136408091, -0.055771190673, -0.074659340084, -0.016589155421, 0.027647016570, 0.048895388842, 0.109811440110, -0.014887063764, 0.103888176382, -0.101540319622, 0.013729128055, 0.026002047583, 0.066433869302, -0.058993920684, 0.016779297963, 0.018528724089, -0.033693131059, -0.051316693425, 0.128329336643, -0.079342551529, -0.029597193003, 0.028015449643, 0.118438534439, -0.028450842947, -0.157380446792, -0.188488736749, 0.046239711344, -0.010816394351, 0.042699251324, 0.035779535770, -0.124656252563, -0.183520510793, -0.009360393509, 0.132038608193, -0.079810611904, -0.076558716595, 0.100177243352, 0.007034526672, -0.118612267077, -0.008003408089, -0.033736929297, -0.034779362381, 0.017925413325, -0.185880243778, -0.021558223292, 0.108287259936, 0.106875151396, 0.144263148308, -0.003871062538, -0.239188045263, 0.147512122989, -0.099176801741, 0.018965121359, -0.001789345406, 0.086854837835, 0.079309567809, 0.060033764690, 0.005025085527, 0.213512718678, -0.045644942671, 0.016973240301, 0.114625319839, -0.017941974103, 0.008631882258, -0.059687085450, 0.015832435340, -0.009819585830, 0.009389327839, -0.090712018311, -0.146153122187, -0.192420169711, 0.100891344249, 0.008023851551, 0.023240420967, 0.065232314169, -0.140560820699, 0.005287575070, 0.096423715353, 0.174295231700, 0.139899522066, 0.063713051379, 0.034651260823, 0.033452805132, 0.149890139699, -0.008946261369, 0.070257276297, 0.223044365644, -0.057581812143, -0.025015465915, 0.105646990240, -0.112206950784, 0.006675611250, 0.071752466261, 0.187411487103, 0.000424695347, 0.055411979556, 0.209332823753, 0.125541999936, 0.082387492061, -0.148279860616, 0.078499428928, -0.074795655906, -0.068828284740, -0.046635899693, -0.011428593658, -0.140038460493, 0.001843427541, 0.021011747420, 0.052891153842, -0.074957996607, -0.119249254465, 0.146537736058, 0.084760382771, 0.079511247575, 0.040093660355, -0.039809778333, -0.098977275193, 0.110250547528, -0.029647773132, -0.027159994468, -0.108928464353, -0.032834142447, 0.061492040753, -0.002177320886, -0.094827547669, 0.122990854084, -0.028053423390, -0.081178322434, 0.113367401063, -0.069638103247, -0.093874007463, -0.054367233068, 0.111205294728, -0.096996113658, -0.028791159391, -0.035526342690, -0.019122896716, 0.081607490778, -0.035898908973, 0.174704477191, -0.021872220561, -0.011933339760, 0.196386545897, -0.119485333562, -0.049855865538, -0.129250317812, -0.030285909772, -0.101696632802, 0.039761863649, 0.018882591277, -0.077216446400, 0.066067837179, 0.144467592239, -0.040606401861, -0.089437611401, -0.066513814032, 0.023240333423, -0.041342664510, 0.175170645118, 0.112248927355, 0.055365316570, 0.053434256464, -0.101066246629, -0.038984280080, -0.043967913836, 0.027690688148, -0.104675233364, 0.148482576013, -0.066849686205, -0.075326003134, 0.099980235100, 0.041640482843, 0.131859987974, -0.100818701088, -0.135499805212, 0.030121186748, -0.031345795840, -0.057759709656, 0.061296746135, 0.126749783754, 0.109307318926, 0.123228222132, 0.027964087203, -0.068417586386, -0.003696969710, 0.050148971379, -0.114884391427, -0.026958040893, 0.040779765695, -0.106085978448, -0.049837972969, -0.114138700068, -0.027413662523, 0.061675522476, 0.085854351521, -0.073523782194, 0.093496851623, -0.040654961020, 0.011610340327, 0.022718250751, 0.203995332122, -0.094944328070, 0.023847196251, 0.110365286469, -0.009089966305, -0.135907873511, -0.029907524586, -0.058063823730, -0.089579015970, -0.066441297531, 0.015308462083, -0.052151244134, -0.029378078878, -0.093506835401, 0.042913723737, 0.168610394001, -0.012992412783, -0.137972995639, 0.125904306769, -0.143547222018, 0.035047549754, 0.075002223253, -0.014636456035, -0.187660112977, 0.036373313516, 0.045041173697, 0.052293233573, 0.135626450181, -0.079359315336, -0.061300951988, 0.036009948701, -0.008488464169, 0.036344468594, -0.087489932775, 0.024988189340, 0.020890317857, 0.100078649819, 0.113548032939, 0.098513387144, -0.100508607924, 0.092433601618, 0.037444502115, -0.094144977629, 0.024513462558, 0.046047210693, 0.129573717713, -0.074258677661, -0.044481839985, -0.104296945035, 0.063444897532, -0.064799629152, -0.058443833143, 0.019008772448, -0.002124036662, -0.055024508387, -0.138720884919, -0.012808191590, -0.157107889652, 0.152111589909, 0.044693760574, 0.111931085587, -0.052267149091, 0.110320791602, 0.112270161510, 0.144993573427, -0.025769781321, 0.029467761517, 0.177548751235, -0.032988503575, -0.120295554399, -0.101075209677, 0.103898249567, -0.115989223123, -0.079738922417, -0.000767721736, 0.063677616417, -0.124691762030, 0.097672589123, -0.106254011393, -0.133451044559, 0.003220188897, 0.102750211954, -0.120901890099, -0.107005529106, 0.040624123067, 0.054655101150, -0.065357863903, -0.249743536115, 0.010200543329, 0.058319829404, 0.065486386418, 0.009656903334, 0.089782536030, 0.040971551090, -0.044427126646, 0.148364007473, -0.080314800143, -0.088974982500, 0.066644594073, -0.067230485380, -0.061522807926, -0.100299775600, -0.215968698263, 0.032000802457, -0.019958751276, 0.060972426087, 0.122152127326, 0.036049850285, 0.143819123507, 0.022442463785, -0.014444624074, 0.079903006554, -0.027354132384, -0.012144381180, 0.135513320565, -0.045759771019, -0.031855825335, 0.180372864008, -0.095419600606, 0.012926364318, 0.124555081129, 0.044080231339, 0.079968541861, 0.015901181847, -0.074775122106, -0.034051686525, -0.012644063681, 0.123052485287, 0.044129636139, -0.016268506646, -0.097010426223, 0.003494334174, -0.045855019242, -0.083999171853, 0.064568981528, 0.051753912121, 0.164978340268, 0.055093247443, 0.050716526806, 0.119379363954, -0.029795501381, 0.000851630699, 0.068859688938, 0.142088577151, 0.052799347788, -0.088653936982, 0.121830724180, -0.072891771793, 0.128372758627, 0.046879723668, -0.030678255484, -0.136336803436, -0.038446661085, 0.110859736800, -0.006532508414, 0.086358033121, 0.125952109694, 0.044980917126, 0.094919212162, -0.104658067226, 0.025901434943, -0.064119398594, 0.085378997028, -0.074642159045, 0.100680530071, -0.052058130503, -0.085730478168, 0.030643999577, -0.015919156373, 0.066195100546, -0.051447063684, -0.019434221089, -0.050155807287, -0.058260057122, 0.035858418792, 0.002727526007, 0.074777901173, -0.079698853195, -0.007579795551, 0.081821881235, -0.061598312110, 0.076706230640, -0.093660175800, -0.020635236055, -0.090232342482, 0.103142812848, 0.025106111541, 0.093911081553, 0.102447941899, -0.022194154561, 0.115432873368, 0.108544863760, -0.059914983809, -0.039217755198, 0.118924610317, 0.029076825827, 0.090103931725, 0.000265118637, 0.105702146888, 0.091501787305, 0.083365827799, -0.033633723855, 0.065374426544, 0.073599927127, -0.078598327935, -0.028481468558, 0.046113044024, 0.067599579692, -0.035329427570, -0.108218923211, 0.027957698330, 0.078158140182, -0.023226935416, -0.098454855382, 0.107450515032, 0.069789469242, 0.048399806023, 0.079294480383, 0.025782115757, -0.072879560292, -0.094099491835, 0.037365421653, -0.024674482644, 0.041645072401, 0.049479257315, 0.124236859381, 0.056237936020, -0.121329829097, -0.060639411211, -0.116208150983, -0.094988793135, -0.031649049371, -0.008837051690, 0.108533598483, 0.094728656113, -0.121653534472, 0.085653774440, 0.035412583500, -0.100411750376, -0.113533206284, -0.066470198333, 0.042107842863, 0.031545359641, -0.122213870287, 0.061736918986, -0.108926557004, -0.057194348425, 0.087113581598, -0.095838814974, 0.106935918331, 0.012564470060, 0.125066846609, 0.093298368156, 0.074024640024, 0.102976873517, -0.030119456351, 0.099254548550, 0.002398818498, 0.051104169339, 0.095924533904, -0.113566547632, 0.109554164112, 0.035286605358, 0.108650639653, -0.105033643544, 0.104286618531, 0.047496356070, -0.083772033453, 0.039119374007, 0.115646854043, -0.033182330430, -0.091314516962, 0.005753431469, -0.077508457005, -0.079901106656, 0.018137281761, -0.006472787820, 0.002914022887, 0.101787410676, -0.082895718515, -0.115024976432, -0.068219281733, 0.098341450095, 0.000714757072, -0.049652189016, -0.045129522681, -0.062703609467, 0.065500579774, -0.047317944467, 0.067585751414, -0.056480765343, 0.113482870162, -0.023303253576, 0.120998755097, -0.031547471881, 0.082699134946, 0.004513462540, 0.100496344268, -0.029733179137, 0.086473703384, -0.010716202669, 0.034965809435, 0.040745843202, 0.025368751958, 0.018204336986, 0.060486566275, -0.032543770969, -0.005249911919, 0.004609264899, -0.062872566283, -0.007601006888, 0.023791447282, 0.133338958025, -0.008145697415, 0.021229801700, 0.077354647219, 0.039805646986, 0.044791817665, 0.095628872514, -0.061796180904, -0.099057383835, 0.084775991738, -0.009950396605, 0.086001418531, -0.018479496241, 0.026226364076, -0.119053147733, -0.077583104372, -0.112532690167, -0.080825813115, -0.059493154287, -0.044117797166, 0.040807466954, 0.052774023265, -0.118014223874, 0.045653592795, 0.135054796934, -0.028159758076, -0.097858190536, -0.082223333418, 0.073399946094, 0.157552912831, 0.089216299355, -0.044903326780, -0.075108543038, 0.050128713250, 0.093642637134, -0.072919413447, 0.039683341980, 0.074737928808, -0.038448709995, 0.012665043585, 0.111965678632, -0.119965746999, 0.097277991474, -0.041200265288, -0.073839962482, 0.008393572643, 0.049170415848, -0.027367452160, 0.066211335361, -0.181405365467, -0.033282171935, 0.062445659190, -0.011676415801, 0.021432776004, -0.003636449343, -0.002154598013, 0.028893703595, -0.125928908587, 0.140428751707, 0.120308302343, -0.042300228029, 0.044527985156, -0.026500582695, -0.027065157890, -0.078794978559, 0.096084378660, -0.019390653819, -0.016811290756, -0.052726671100, -0.008740180172, 0.087419465184, 0.070332624018, 0.137775629759, 0.055953685194, -0.045901656151, -0.002527764533, 0.032455317676, 0.148162558675, 0.104857623577, -0.034173987806, 0.027575073764, -0.106895320117, 0.014347544871, -0.016767011955, -0.094356022775, 0.067492954433, 0.142702862620, -0.066421940923, -0.076527923346, -0.067010775208, -0.159527912736, -0.124691486359, 0.061513587832, 0.001858674455, -0.036600243300, 0.060086019337, -0.008914294653, -0.007696391549, 0.068012453616, 0.037684272975, -0.094678163528, 0.050031885505, 0.109507933259, -0.000443558558, 0.037514913827, 0.096480414271, -0.096035815775, 0.086468920112, -0.027637828141, 0.068525865674, -0.067798204720, -0.006362852640, 